{"learner":{"attributes":{"scikit_learn":"{\"_estimator_type\": \"regressor\"}"},"feature_names":[],"feature_types":[],"gradient_booster":{"model":{"gbtree_model_param":{"num_parallel_tree":"1","num_trees":"100"},"iteration_indptr":[0,1,2,3,4,5,6,7,8,9,10,11,12,13,14,15,16,17,18,19,20,21,22,23,24,25,26,27,28,29,30,31,32,33,34,35,36,37,38,39,40,41,42,43,44,45,46,47,48,49,50,51,52,53,54,55,56,57,58,59,60,61,62,63,64,65,66,67,68,69,70,71,72,73,74,75,76,77,78,79,80,81,82,83,84,85,86,87,88,89,90,91,92,93,94,95,96,97,98,99,100],"tree_info":[0,0,0,0,0,0,0,0,0,0,0,0,0,0,0,0,0,0,0,0,0,0,0,0,0,0,0,0,0,0,0,0,0,0,0,0,0,0,0,0,0,0,0,0,0,0,0,0,0,0,0,0,0,0,0,0,0,0,0,0,0,0,0,0,0,0,0,0,0,0,0,0,0,0,0,0,0,0,0,0,0,0,0,0,0,0,0,0,0,0,0,0,0,0,0,0,0,0,0,0],"trees":[{"base_weights":[-0E0,-3.3098906E-1,1.157421E0,8.597429E-1,5.9686974E-2,2.2068845E-1,1.2651794E0,-4.0029144E-1,8.561456E-2,-2.8237653E-1,3.881599E-2,-6.135257E-1,-2.9299566E-1,-5.0928855E-1,-3.1855773E-2,-2.3843573E-2,-1.9146205E-1,-6.51808E-1,1.218175E-1,-5.798024E-1,1.09569594E-1,-1.702038E-1,1.1647612E0,8.374625E-1,4.86808E-2,4.6172118E-1,4.515335E-2,-4.325567E-2,7.8944665E-1,-2.7889794E-1,3.6471158E-1,-2.652865E-3,3.4899843E-1,-1.9861957E-1,3.552843E-2,-2.5534688E-2,-4.72985E-1,7.950553E-1,1.5350647E-1,-1.8100834E-1,5.4185593E-1,-0E0,-6.133493E-1,-2.1285668E-2,-0E0,-4.2531642E-1,-0E0,-8.094215E-3,-0E0,-5.374649E-3,2.1027255E-1,-2.5428995E-1,1.5318593E-1,-1.2325271E-1,1.4517528E-1,4.4560418E-1,-0E0,-0E0,8.800516E-1,-6.0688263E-1,-0E0,9.6090645E-1,-0E0,-0E0,6.893967E-1,2.511514E-2,-0E0,-0E0,-4.1227075E-1,-0E0,-6.612685E-1,-0E0,-7.2075486E-1,-0E0,3.621793E-2,2.722886E-1,-0E0,-0E0,5.815346E-1,-4.8985612E-1,-0E0,-0E0,8.2957727E-1,-1.7593603E-1,-0E0,-1.501475E-2,-0E0,-0E0,-2.2432866E-2,2.3330417E-1,-0E0,-1.4322062E-2,-0E0,-0E0,2.520349E-2,2.9231202E-2,-0E0,-4.527359E-1,-0E0,-0E0,-1.00513935E-1,7.402297E-3,-0E0,-0E0,-1.8287806E-2,-5.463708E-3,-0E0,-4.641763E-3,-0E0,-0E0,-1.5123825E-2,-2.815212E-1,-0E0,-9.753921E-3,-0E0,-0E0,1.6726914E-1,5.676136E-3,-0E0,-0E0,6.033299E-1,1.8281197E-2,-0E0,8.191533E-3,-0E0,-0E0,9.607264E-5],"categories":[],"categories_nodes":[],"categories_segments":[],"categories_sizes":[],"default_left":[0,0,0,0,0,0,0,0,0,0,0,0,0,0,0,0,0,0,0,0,0,0,0,0,0,0,0,0,0,0,0,0,0,0,0,0,0,0,0,0,0,0,0,0,0,0,0,0,0,0,0,0,0,0,0,0,0,0,0,0,0,0,0,0,0,0,0,0,0,0,0,0,0,0,0,0,0,0,0,0,0,0,0,0,0,0,0,0,0,0,0,0,0,0,0,0,0,0,0,0,0,0,0,0,0,0,0,0,0,0,0,0,0,0,0,0,0,0,0,0,0,0,0,0,0,0,0],"id":0,"left_children":[1,7,3,5,-1,29,23,11,9,19,-1,35,13,15,33,-1,17,43,31,59,21,45,73,25,-1,27,-1,99,57,67,37,51,55,47,49,-1,79,81,39,41,77,-1,69,-1,-1,97,-1,-1,-1,53,89,111,115,83,75,63,-1,-1,61,103,-1,95,-1,125,65,-1,-1,-1,91,-1,71,-1,87,-1,-1,123,-1,-1,119,85,-1,-1,93,105,-1,-1,-1,-1,-1,101,-1,-1,-1,-1,-1,-1,-1,109,-1,-1,107,-1,-1,-1,-1,-1,-1,-1,-1,-1,-1,113,-1,-1,-1,-1,117,-1,-1,-1,121,-1,-1,-1,-1,-1,-1],"loss_changes":[1.0966816E4,6.742134E2,1.2902891E3,1.0893538E3,0E0,1.4913339E2,1.8506885E2,3.505525E2,1.4220533E3,3.0518365E2,0E0,7.2406494E1,6.885038E2,5.3475977E2,8.5616264E1,0E0,5.536556E2,5.6164246E1,8.940859E1,2.5598297E1,3.39073E2,5.5027534E1,1.4498199E1,1.5809528E2,0E0,2.4080902E2,0E0,1.8982186E0,3.3597443E1,1.5287706E1,5.690027E1,4.8109303E1,3.713044E1,5.1807877E1,4.883819E1,0E0,1.2585449E1,1.1086517E1,2.022061E2,8.9228806E1,1.3601257E1,0E0,1.478373E1,0E0,0E0,2.9508896E0,0E0,0E0,0E0,4.6646347E1,8.068554E0,1.0625229E0,7.537327E-1,1.0545015E1,1.396468E1,1.9622223E1,0E0,0E0,2.5448456E1,1.4825134E0,0E0,4.047241E0,0E0,4.020157E-3,4.376848E1,0E0,0E0,0E0,7.6760025E0,0E0,1.6183731E1,0E0,8.313141E0,0E0,0E0,1.0258484E-1,0E0,0E0,2.9734802E-1,9.777405E0,0E0,0E0,5.2401123E0,1.2791481E0,0E0,0E0,0E0,0E0,0E0,1.8493729E0,0E0,0E0,0E0,0E0,0E0,0E0,0E0,1.0768967E0,0E0,0E0,1.2242451E0,0E0,0E0,0E0,0E0,0E0,0E0,0E0,0E0,0E0,0E0,9.659805E-1,0E0,0E0,0E0,0E0,8.789377E-1,0E0,0E0,0E0,1.6244965E0,0E0,0E0,0E0,0E0,0E0,0E0],"parents":[2147483647,0,0,2,2,3,3,1,1,8,8,7,7,12,12,13,13,16,16,9,9,20,20,6,6,23,23,25,25,5,5,18,18,14,14,11,11,30,30,38,38,39,39,17,17,21,21,33,33,34,34,31,31,49,49,32,32,28,28,19,19,58,58,55,55,64,64,29,29,42,42,70,70,22,22,54,54,40,40,36,36,37,37,53,53,79,79,72,72,50,50,68,68,82,82,61,61,45,45,27,27,89,89,59,59,83,83,100,100,97,97,51,51,111,111,52,52,116,116,78,78,120,120,75,75,63,63],"right_children":[2,8,4,6,-1,30,24,12,10,20,-1,36,14,16,34,-1,18,44,32,60,22,46,74,26,-1,28,-1,100,58,68,38,52,56,48,50,-1,80,82,40,42,78,-1,70,-1,-1,98,-1,-1,-1,54,90,112,116,84,76,64,-1,-1,62,104,-1,96,-1,126,66,-1,-1,-1,92,-1,72,-1,88,-1,-1,124,-1,-1,120,86,-1,-1,94,106,-1,-1,-1,-1,-1,102,-1,-1,-1,-1,-1,-1,-1,110,-1,-1,108,-1,-1,-1,-1,-1,-1,-1,-1,-1,-1,114,-1,-1,-1,-1,118,-1,-1,-1,122,-1,-1,-1,-1,-1,-1],"split_conditions":[2.1E-2,1E-3,5.5E-2,2.5E0,5.9686974E-2,8.12E-1,3.1E-2,5.76E-1,9.9E0,7.95E-1,3.881599E-2,2.28E1,1.77E1,7.14E-1,6.29E-1,-2.3843573E-2,1.16E1,7.78E-1,7.41E-1,9.7E0,7.8E0,8.11E-1,3E-3,7.2E0,4.86808E-2,8E-1,4.515335E-2,-7.0710677E-1,2.3E-2,-3.8268343E-1,-3.8268343E-1,1.51E1,7.84E-1,2.65E1,2.14E1,-2.5534688E-2,3.25E1,2.6E-2,1E0,3.8268343E-1,3.2E-2,-0E0,-2.3E0,-2.1285668E-2,-0E0,7.4E0,-0E0,-8.094215E-3,-0E0,6.89E-1,6.92E-1,7.37E-1,1.53E1,2.05E1,1.93E1,7.56E-1,-0E0,-0E0,8.34E-1,7.26E-1,-0E0,7E0,-0E0,1.21E1,1.55E1,2.511514E-2,-0E0,-0E0,3.7E-2,-0E0,3.1E-2,-0E0,8.13E-1,-0E0,3.621793E-2,7.56E-1,-0E0,-0E0,-2.1E0,5.7E-1,-0E0,-0E0,-3.4E0,6.88E-1,-0E0,-1.501475E-2,-0E0,-0E0,-2.2432866E-2,2.63E1,-0E0,-1.4322062E-2,-0E0,-0E0,2.520349E-2,2.9231202E-2,-0E0,-7.0710677E-1,-0E0,-0E0,1E0,7.402297E-3,-0E0,-0E0,-1.8287806E-2,-5.463708E-3,-0E0,-4.641763E-3,-0E0,-0E0,-1.5123825E-2,1E0,-0E0,-9.753921E-3,-0E0,-0E0,1.73E1,5.676136E-3,-0E0,-0E0,8.59E-1,1.8281197E-2,-0E0,8.191533E-3,-0E0,-0E0,9.607264E-5],"split_indices":[1,1,1,3,0,0,1,0,3,0,0,3,3,0,0,0,3,0,0,3,3,0,1,3,0,0,0,7,1,7,7,3,0,3,3,0,3,1,7,7,1,0,3,0,0,3,0,0,0,0,0,0,3,3,3,0,0,0,0,0,0,3,0,3,3,0,0,0,1,0,1,0,0,0,0,0,0,0,3,0,0,0,3,0,0,0,0,0,0,3,0,0,0,0,0,0,0,7,0,0,7,0,0,0,0,0,0,0,0,0,0,7,0,0,0,0,3,0,0,0,0,0,0,0,0,0,0],"split_type":[0,0,0,0,0,0,0,0,0,0,0,0,0,0,0,0,0,0,0,0,0,0,0,0,0,0,0,0,0,0,0,0,0,0,0,0,0,0,0,0,0,0,0,0,0,0,0,0,0,0,0,0,0,0,0,0,0,0,0,0,0,0,0,0,0,0,0,0,0,0,0,0,0,0,0,0,0,0,0,0,0,0,0,0,0,0,0,0,0,0,0,0,0,0,0,0,0,0,0,0,0,0,0,0,0,0,0,0,0,0,0,0,0,0,0,0,0,0,0,0,0,0,0,0,0,0,0],"sum_hessian":[2.8625E4,2.226E4,6.365E3,4.778E3,1.587E3,1.951E3,2.827E3,1.9291E4,2.969E3,2.213E3,7.56E2,6.144E3,1.3147E4,6.981E3,6.166E3,3.511E3,3.47E3,1.534E3,1.936E3,1.403E3,8.1E2,5.66E2,2.44E2,1.416E3,1.411E3,1.003E3,4.13E2,2.75E2,7.28E2,2.81E2,1.67E3,9.67E2,9.69E2,2.201E3,3.965E3,2.017E3,4.127E3,3.93E2,1.277E3,5.48E2,7.29E2,2.64E2,2.84E2,1.406E3,1.28E2,3.94E2,1.72E2,1.904E3,2.97E2,2.75E3,1.215E3,6.15E2,3.52E2,1.915E3,8.35E2,7.81E2,1.88E2,9.9E1,6.29E2,1.35E3,5.3E1,5.55E2,7.4E1,4.14E2,3.67E2,3.11E2,5.6E1,6.3E1,2.18E2,6E0,2.78E2,1.3E1,2.65E2,7E0,2.37E2,4.25E2,4.1E2,5.6E1,6.73E2,3.9E3,2.27E2,1.6E1,3.77E2,1.28E3,6.35E2,3.775E3,1.25E2,4E0,2.61E2,1.135E3,8E1,1.96E2,2.2E1,2E0,3.75E2,5.44E2,1.1E1,3.62E2,3.2E1,3.7E1,2.38E2,1.045E3,9E1,8E0,1.342E3,1.233E3,4.7E1,1.51E2,8.7E1,6.6E1,2.96E2,5.15E2,1E2,3.95E2,1.2E2,3E1,3.22E2,2.76E2,4.6E1,4.7E1,6.26E2,6.18E2,8E0,4.24E2,1E0,2.3E1,3.91E2],"tree_param":{"num_deleted":"0","num_feature":"8","num_nodes":"127","size_leaf_vector":"1"}},{"base_weights":[-0E0,-2.3663312E-1,2.0815613E0,-7.970454E-1,2.3349875E-1,-2.0974176E-3,1.3368287E0,1.8830713E0,2.796231E-1,-8.6705005E-1,2.1697113E-1,-1.4291406E-1,4.5200396E-1,-3.4747112E-1,-9.5496976E-1,1.5283818E0,2.5438268E0,1.1466008E0,2.0459783E-1,4.2979002E-2,-0E0,-1.0645162E0,-6.194752E-1,-2.5520107E-1,-1.2980596E0,-2.2068071E-1,4.0962E-2,-6.601715E-2,-4.5861503E-1,-1.613459E-1,1.7420828E-1,4.7166225E-1,-0E0,-0E0,7.69176E-2,-0E0,1.691218E-2,2.9400822E-2,5.400127E-1,-0E0,4.6359733E-2,1.889759E-1,-1.4226513E-1,3.308011E-1,-0E0,-1.3193926E0,-0E0,-3.8625122E-4,-2.7723318E-1,-3.3044624E-1,-0E0,-0E0,1.4635886E-2,3.7585236E-2,6.782659E-2,-0E0,-3.7846258E-1,5.9377855E-1,-0E0,-4.2039942E-2,-0E0,-3.4410906E-1,-0E0,-0E0,1.5722856E-2,-0E0,-5.1576016E-3,2.1231659E-2,-0E0,-2.4896255E-1,1.2884648E-1,-0E0,-2.556863E-1,-3.196935E-2,-0E0,-1.0683992E-2,-0E0,-9.078203E-3,-0E0,-1.1567503E-2,-0E0,-0E0,9.339525E-3,6.957245E-2,-0E0,-1.3878981E-2,-0E0,9.829326E-2,-0E0,-0E0,1.9590133E-1,6.5595447E-3,-0E0,-0E0,-1.0429077E-2,1.3247221E-3,-0E0,-0E0,3.0322105E-3,-9.931681E-3,-0E0],"categories":[],"categories_nodes":[],"categories_segments":[],"categories_sizes":[],"default_left":[0,0,0,0,0,0,0,0,0,0,0,0,0,0,0,0,0,0,0,0,0,0,0,0,0,0,0,0,0,0,0,0,0,0,0,0,0,0,0,0,0,0,0,0,0,0,0,0,0,0,0,0,0,0,0,0,0,0,0,0,0,0,0,0,0,0,0,0,0,0,0,0,0,0,0,0,0,0,0,0,0,0,0,0,0,0,0,0,0,0,0,0,0,0,0,0,0,0,0,0,0],"id":1,"left_children":[1,3,15,9,5,11,7,53,35,13,31,25,17,55,21,39,33,19,37,-1,-1,73,23,61,45,27,83,29,85,47,89,63,-1,-1,-1,-1,-1,41,57,-1,-1,43,71,51,69,59,-1,65,49,99,-1,-1,-1,-1,-1,-1,79,67,-1,-1,-1,93,-1,-1,-1,95,-1,-1,-1,75,81,-1,77,-1,-1,-1,-1,-1,-1,-1,-1,-1,-1,87,-1,-1,-1,97,-1,-1,91,-1,-1,-1,-1,-1,-1,-1,-1,-1,-1],"loss_changes":[1.4117191E4,6.827923E3,3.371162E2,9.043926E2,3.7414473E3,6.958269E2,1.236748E3,2.6057617E1,6.940978E1,3.7881445E2,7.559288E1,1.4443071E2,2.9804504E2,2.271466E1,1.7538379E2,5.074536E1,7.444922E1,2.3367651E2,5.8630943E1,0E0,0E0,1.4172363E1,4.70724E2,1.9381226E1,3.7092896E1,1.9027463E2,5.784594E0,9.616013E1,4.6091614E0,3.4614166E1,3.8986607E0,1.8298569E1,0E0,0E0,0E0,0E0,0E0,4.5487038E1,2.250058E1,0E0,0E0,3.846485E1,1.4854098E1,2.623899E1,1.5512021E1,2.1831665E1,0E0,1.7053844E1,3.8849648E1,4.498291E-2,0E0,0E0,0E0,0E0,0E0,0E0,7.6880035E0,1.6126297E1,0E0,0E0,0E0,2.3796692E0,0E0,0E0,0E0,1.2849685E0,0E0,0E0,0E0,1.0757308E1,7.273896E0,0E0,8.409842E0,0E0,0E0,0E0,0E0,0E0,0E0,0E0,0E0,0E0,0E0,4.2902203E0,0E0,0E0,0E0,7.2283745E-1,0E0,0E0,4.07115E0,0E0,0E0,0E0,0E0,0E0,0E0,0E0,0E0,0E0,0E0],"parents":[2147483647,0,0,1,1,4,4,6,6,3,3,5,5,9,9,2,2,12,12,17,17,14,14,22,22,11,11,25,25,27,27,10,10,16,16,8,8,18,18,15,15,37,37,41,41,24,24,29,29,48,48,43,43,7,7,13,13,38,38,45,45,23,23,31,31,47,47,57,57,44,44,42,42,21,21,69,69,72,72,56,56,70,70,26,26,28,28,83,83,30,30,90,90,61,61,65,65,87,87,49,49],"right_children":[2,4,16,10,6,12,8,54,36,14,32,26,18,56,22,40,34,20,38,-1,-1,74,24,62,46,28,84,30,86,48,90,64,-1,-1,-1,-1,-1,42,58,-1,-1,44,72,52,70,60,-1,66,50,100,-1,-1,-1,-1,-1,-1,80,68,-1,-1,-1,94,-1,-1,-1,96,-1,-1,-1,76,82,-1,78,-1,-1,-1,-1,-1,-1,-1,-1,-1,-1,88,-1,-1,-1,98,-1,-1,92,-1,-1,-1,-1,-1,-1,-1,-1,-1,-1],"split_conditions":[8.9E-2,6.1E0,9.2E-2,8.8E-2,3.1E-2,1E-3,8.6E-2,4.4E-2,7.8E0,8.2E-2,1.6E-2,1E0,3.6E-2,6E-2,8.7E-2,1.7E0,2.6E0,9.4E0,8.7E-2,4.2979002E-2,-0E0,4.5E-2,1.3E-2,4.2E0,7E-2,6.123234E-17,9.3E0,-1.8369701E-16,8.8E-2,3.4E-2,6.5E0,2.2E0,-0E0,-0E0,7.69176E-2,-0E0,1.691218E-2,8.5E-2,8.4E0,-0E0,4.6359733E-2,8.6E0,9E-3,-1.8369701E-16,1.8E-2,5.9E0,-0E0,9.1E0,8.5E-2,9.4E0,-0E0,-0E0,1.4635886E-2,3.7585236E-2,6.782659E-2,-0E0,1E-3,2.7E-2,-0E0,-4.2039942E-2,-0E0,1.5E0,-0E0,-0E0,1.5722856E-2,8.4E0,-5.1576016E-3,2.1231659E-2,-0E0,7.2E-2,5.2E-2,-0E0,8.6E0,-3.196935E-2,-0E0,-1.0683992E-2,-0E0,-9.078203E-3,-0E0,-1.1567503E-2,-0E0,-0E0,9.339525E-3,6.3E-2,-0E0,-1.3878981E-2,-0E0,6.2E0,-0E0,-0E0,9.2E0,6.5595447E-3,-0E0,-0E0,-1.0429077E-2,1.3247221E-3,-0E0,-0E0,3.0322105E-3,-9.931681E-3,-0E0],"split_indices":[2,4,2,2,1,1,2,1,4,2,1,7,2,2,2,4,4,4,2,0,0,1,1,4,1,7,4,7,2,2,4,4,0,0,0,0,0,2,4,0,0,4,1,7,1,4,0,4,2,4,0,0,0,0,0,0,1,1,0,0,0,4,0,0,0,4,0,0,0,2,2,0,4,0,0,0,0,0,0,0,0,0,0,2,0,0,0,4,0,0,4,0,0,0,0,0,0,0,0,0,0],"split_type":[0,0,0,0,0,0,0,0,0,0,0,0,0,0,0,0,0,0,0,0,0,0,0,0,0,0,0,0,0,0,0,0,0,0,0,0,0,0,0,0,0,0,0,0,0,0,0,0,0,0,0,0,0,0,0,0,0,0,0,0,0,0,0,0,0,0,0,0,0,0,0,0,0,0,0,0,0,0,0,0,0,0,0,0,0,0,0,0,0,0,0,0,0,0,0,0,0,0,0,0,0],"sum_hessian":[2.8625E4,2.57E4,2.925E3,1.1821E4,1.3879E4,1.1363E4,2.516E3,1.596E3,9.2E2,1.115E4,6.71E2,8.842E3,2.521E3,1.779E3,9.371E3,1.432E3,1.493E3,5.55E2,1.966E3,4.69E2,8.6E1,6.838E3,2.533E3,1.745E3,7.88E2,6.596E3,2.246E3,4.253E3,2.343E3,3.343E3,9.1E2,4.81E2,1.9E2,1.2E1,1.481E3,4.76E2,4.44E2,1.488E3,4.78E2,1E1,1.422E3,1.073E3,4.15E2,7.01E2,3.72E2,7.84E2,4E0,1.761E3,1.582E3,1.469E3,1.13E2,2.69E2,4.32E2,6.99E2,8.97E2,1.21E2,1.658E3,4.59E2,1.9E1,7.06E2,7.8E1,1.123E3,6.22E2,2.5E1,4.56E2,1.185E3,5.76E2,3.55E2,1.04E2,2.04E2,1.68E2,6E1,3.55E2,6.836E3,2E0,1.84E2,2E1,3.45E2,1E1,1.649E3,9E0,6.5E1,1.03E2,1.973E3,2.73E2,2.324E3,1.9E1,1.432E3,5.41E2,8.9E1,8.21E2,7.44E2,7.7E1,3E0,1.12E3,6.58E2,5.27E2,7E0,1.425E3,1.464E3,5E0],"tree_param":{"num_deleted":"0","num_feature":"8","num_nodes":"101","size_leaf_vector":"1"}},{"base_weights":[-0E0,-3.116677E-1,1.0923871E0,-1.0300379E0,1.4865801E0,8.725816E-2,-6.2941056E-1,-3.3885553E-1,2.8202915E-1,-3.0193763E-2,-4.9503472E-1,3.1365407E-1,1.5879487E0,1.3040851E-1,7.384258E-1,1.3836557E0,6.855333E-2,-2.5912952E-1,-1.8608455E-2,-1.1742727E0,-0E0,4.2005192E-2,-0E0,-1.2201376E0,-0E0,2.2972658E-2,-0E0,1.6614676E-1,-1.3010883E-2,1.9732808E-1,-0E0,-1.1644323E-2,-0E0,-3.727417E-2,-0E0,-8.121904E-3,-0E0,-0E0,6.3205305E-3,3.2102868E-1,-0E0,9.770746E-3,-0E0,-0E0,-5.2982173E-4],"categories":[],"categories_nodes":[],"categories_segments":[],"categories_sizes":[],"default_left":[0,0,0,0,0,0,0,0,0,0,0,0,0,0,0,0,0,0,0,0,0,0,0,0,0,0,0,0,0,0,0,0,0,0,0,0,0,0,0,0,0,0,0,0,0],"id":2,"left_children":[1,5,3,19,11,7,9,31,13,-1,17,39,15,27,25,21,-1,35,-1,23,-1,-1,-1,33,-1,-1,-1,29,43,37,-1,-1,-1,-1,-1,-1,-1,-1,-1,41,-1,-1,-1,-1,-1],"loss_changes":[9.758969E3,2.8759824E3,5.3732705E3,1.12915405E2,4.5245898E2,8.020332E2,4.8425E2,3.3272125E1,3.8634247E2,0E0,1.9069824E2,1.9748421E0,3.2784668E2,4.24812E1,4.2824768E1,1.0300781E2,0E0,1.1785538E1,0E0,7.505493E1,0E0,0E0,0E0,1.8252808E1,0E0,0E0,0E0,3.5371887E1,5.7273507E-2,5.9207306E0,0E0,0E0,0E0,0E0,0E0,0E0,0E0,0E0,0E0,1.207653E0,0E0,0E0,0E0,0E0,0E0],"parents":[2147483647,0,0,2,2,1,1,5,5,6,6,4,4,8,8,12,12,10,10,3,3,15,15,19,19,14,14,13,13,27,27,7,7,23,23,17,17,29,29,11,11,39,39,28,28],"right_children":[2,6,4,20,12,8,10,32,14,-1,18,40,16,28,26,22,-1,36,-1,24,-1,-1,-1,34,-1,-1,-1,30,44,38,-1,-1,-1,-1,-1,-1,-1,-1,-1,42,-1,-1,-1,-1,-1],"split_conditions":[2.1E-2,5E-1,6.1E0,5.9E0,6.7E0,5.7E0,3.3E0,5.3E0,1E-3,-3.0193763E-2,9E-1,1E0,6.2E-2,9.3E0,9.4E0,1.3E0,6.855333E-2,1.6E-2,-1.8608455E-2,7E-2,-0E0,4.2005192E-2,-0E0,1E0,-0E0,2.2972658E-2,-0E0,3.8268343E-1,-9.238795E-1,6.1E0,-0E0,-1.1644323E-2,-0E0,-3.727417E-2,-0E0,-8.121904E-3,-0E0,-0E0,6.3205305E-3,1.6E0,-0E0,9.770746E-3,-0E0,-0E0,-5.2982173E-4],"split_indices":[1,5,4,4,4,4,4,4,1,0,5,6,1,4,4,5,0,1,0,1,0,0,0,6,0,0,0,6,6,4,0,0,0,0,0,0,0,0,0,5,0,0,0,0,0],"split_type":[0,0,0,0,0,0,0,0,0,0,0,0,0,0,0,0,0,0,0,0,0,0,0,0,0,0,0,0,0,0,0,0,0,0,0,0,0,0,0,0,0,0,0,0,0],"sum_hessian":[2.8625E4,2.226E4,6.365E3,9.57E2,5.408E3,9.73E3,1.253E4,2.891E3,6.839E3,3.095E3,9.435E3,5.09E2,4.899E3,5.299E3,1.54E3,3.902E3,9.97E2,3.55E3,5.885E3,8.18E2,1.39E2,3.863E3,3.9E1,8.08E2,1E1,1.505E3,3.5E1,4.8E3,4.99E2,4.311E3,4.89E2,2.424E3,4.67E2,7.91E2,1.7E1,3.413E3,1.37E2,3.96E2,3.915E3,5.05E2,4E0,5.02E2,3E0,4.5E1,4.54E2],"tree_param":{"num_deleted":"0","num_feature":"8","num_nodes":"45","size_leaf_vector":"1"}},{"base_weights":[-0E0,-2.263717E-1,1.9917551E0,2.0466895E-1,-6.704196E-1,4.9803276E-3,9.2990375E-1,1.7725846E0,-2.6654324E-2,3.1191713E-1,-1.8163009E-1,-4.0811577E-1,-8.7124777E-1,-9.4926834E-1,1.23691894E-1,-2.6665407E-1,7.4252564E-1,1.437272E-1,9.998187E-1,-4.6198156E-1,7.694061E-1,-0E0,4.1801993E-2,-3.998759E-1,7.7921945E-1,1.4616774E0,2.4319222E0,-0E0,-4.436827E-1,-9.090892E-1,-3.2003674E-1,-6.313595E-1,-0E0,-7.031641E-1,-0E0,-1.1108165E0,-7.031733E-1,-8.210086E-1,-0E0,1.5043727E0,-0E0,-8.544398E-2,2.378088E-1,-0E0,9.5546395E-1,-8.542697E-1,-0E0,-1.7217888E-2,-3.762128E-1,-4.119582E-1,-0E0,-0E0,3.1694274E-2,-7.5314695E-1,-0E0,7.408807E-2,-0E0,-2.7415937E-1,2.8608872E-2,-0E0,-6.7690676E-1,-0E0,1.7025419E-1,-3.2727703E-2,-4.6640804E-1,-1.7235905E-2,-0E0,-2.5757078E-2,-0E0,-0E0,9.577227E-3,2.3144094E-2,-0E0,-4.8805842E-1,-0E0,3.284033E-2,-1.1574558E-1,-0E0,-9.1479194E-1,-2.7742915E-2,-0E0,-0E0,2.5676973E-2,-3.335196E-2,-0E0,3.414535E-2,6.386382E-2,-0E0,1.5061626E0,4.5318197E-2,-0E0,-1.6851282E-1,-0E0,-2.2897433E-2,-0E0,-0E0,2.088007E-1,-0E0,-7.023448E-3,-3.776876E-1,-0E0,-0E0,2.98724E-2,2.2682985E-3,-0E0,1.932363E-1,-0E0,-0E0,2.2652735E-1,-1.1353277E-2,-0E0,-0E0,-1.49278E-2,2.4938951E-3,-0E0,-1.973137E-3,-0E0,-0E0,-4.095366E-3,-0E0,-4.6379812E-2,-8.446589E-3,-0E0,-5.519231E-2,-0E0,2.1593386E-1,-0E0,7.01504E-3,-0E0,6.9249864E-3,-0E0,-0E0,7.151864E-4,-1.6717617E-3,-0E0],"categories":[],"categories_nodes":[],"categories_segments":[],"categories_sizes":[],"default_left":[0,0,0,0,0,0,0,0,0,0,0,0,0,0,0,0,0,0,0,0,0,0,0,0,0,0,0,0,0,0,0,0,0,0,0,0,0,0,0,0,0,0,0,0,0,0,0,0,0,0,0,0,0,0,0,0,0,0,0,0,0,0,0,0,0,0,0,0,0,0,0,0,0,0,0,0,0,0,0,0,0,0,0,0,0,0,0,0,0,0,0,0,0,0,0,0,0,0,0,0,0,0,0,0,0,0,0,0,0,0,0,0,0,0,0,0,0,0,0,0,0,0,0,0,0,0,0,0,0,0,0,0,0,0,0],"id":3,"left_children":[1,3,25,5,11,9,7,85,23,17,15,19,13,35,95,27,71,61,21,29,81,-1,-1,33,51,39,55,41,31,77,47,59,57,53,-1,83,37,45,-1,87,-1,49,43,91,101,67,-1,119,99,73,75,-1,-1,93,-1,-1,-1,121,69,-1,63,-1,105,-1,65,-1,-1,-1,-1,-1,-1,-1,-1,111,-1,103,117,-1,79,-1,-1,-1,-1,-1,-1,-1,-1,-1,89,-1,-1,97,131,-1,-1,-1,125,-1,-1,109,-1,-1,-1,-1,-1,107,-1,113,127,-1,-1,-1,-1,-1,115,-1,-1,-1,-1,-1,123,-1,-1,133,-1,129,-1,-1,-1,-1,-1,-1,-1,-1,-1],"loss_changes":[1.2924729E4,4.965952E3,2.8978613E2,1.7787546E3,5.446177E2,5.9995166E2,2.3373345E3,5.784668E0,3.2390213E2,3.572029E2,4.3742108E2,3.347688E2,6.2745215E2,8.025098E1,3.4142218E0,2.63801E2,1.0711639E1,2.6065582E1,3.2586084E2,2.3137341E2,7.1898346E0,0E0,0E0,1.5509494E2,3.23407E1,6.604956E1,3.1969727E1,4.4825394E1,2.2622522E2,8.047485E0,3.5703766E1,2.8067688E1,3.1805828E1,3.2272064E1,0E0,6.3710938E0,2.1712329E2,4.0142334E1,0E0,5.178955E0,0E0,3.2382957E1,1.2603775E2,4.4298654E0,2.6912231E0,1.4675293E1,0E0,1.3838327E0,3.400116E0,9.235584E0,9.150837E0,0E0,0E0,3.7327576E0,0E0,0E0,0E0,9.1238976E-1,1.1514822E1,0E0,2.00625E1,0E0,1.6916733E0,0E0,1.2360867E2,0E0,0E0,0E0,0E0,0E0,0E0,0E0,0E0,1.6569672E0,0E0,2.4591565E0,1.4117346E0,0E0,7.7976074E0,0E0,0E0,0E0,0E0,0E0,0E0,0E0,0E0,0E0,4.82251E0,0E0,0E0,3.4079366E0,1.2218967E-1,0E0,0E0,0E0,5.4179955E-1,0E0,0E0,1.6772461E0,0E0,0E0,0E0,0E0,0E0,5.73542E0,0E0,1.541057E0,2.3049927E-1,0E0,0E0,0E0,0E0,0E0,1.4751168E0,0E0,0E0,0E0,0E0,0E0,6.833112E-1,0E0,0E0,4.260063E-2,0E0,1.4562416E-1,0E0,0E0,0E0,0E0,0E0,0E0,0E0,0E0,0E0],"parents":[2147483647,0,0,1,1,3,3,6,6,5,5,4,4,12,12,10,10,9,9,11,11,18,18,8,8,2,2,15,15,19,19,28,28,23,23,13,13,36,36,25,25,27,27,42,42,37,37,30,30,41,41,24,24,33,33,26,26,32,32,31,31,17,17,60,60,64,64,45,45,58,58,16,16,49,49,50,50,29,29,78,78,20,20,35,35,7,7,39,39,88,88,43,43,53,53,14,14,91,91,48,48,44,44,75,75,62,62,105,105,99,99,73,73,107,107,114,114,76,76,47,47,57,57,120,120,96,96,108,108,125,125,92,92,123,123],"right_children":[2,4,26,6,12,10,8,86,24,18,16,20,14,36,96,28,72,62,22,30,82,-1,-1,34,52,40,56,42,32,78,48,60,58,54,-1,84,38,46,-1,88,-1,50,44,92,102,68,-1,120,100,74,76,-1,-1,94,-1,-1,-1,122,70,-1,64,-1,106,-1,66,-1,-1,-1,-1,-1,-1,-1,-1,112,-1,104,118,-1,80,-1,-1,-1,-1,-1,-1,-1,-1,-1,90,-1,-1,98,132,-1,-1,-1,126,-1,-1,110,-1,-1,-1,-1,-1,108,-1,114,128,-1,-1,-1,-1,-1,116,-1,-1,-1,-1,-1,124,-1,-1,134,-1,130,-1,-1,-1,-1,-1,-1,-1,-1,-1],"split_conditions":[8.9E-2,5E-1,9.2E-2,3.1E-2,8.3E-2,5.9E-2,8.6E-2,4.4E-2,2.3E0,2E-3,8.8E-2,1.8E-2,8.8E-2,1.78E1,8.5E0,8.4E-2,2.9E-2,1.14E1,8.2E0,1.52E1,2.1E-2,-0E0,4.1801993E-2,8.8E-2,3.5E-2,1.7E0,1.3E0,1E-3,8.7E-2,5E0,7E-1,8.5E-2,8.3E0,6.9E-2,-0E0,7.4E-2,8.7E-2,3.01E1,-0E0,-5.3E0,-0E0,1.25E1,9.9E0,7.6E-2,6.2E-2,1E-3,-0E0,1.94E1,1E-3,8.1E-2,7.8E-2,-0E0,3.1694274E-2,2.1E0,-0E0,7.408807E-2,-0E0,3E-2,1E-3,-0E0,8E0,-0E0,2.36E1,-3.2727703E-2,1E-3,-1.7235905E-2,-0E0,-2.5757078E-2,-0E0,-0E0,9.577227E-3,2.3144094E-2,-0E0,6E-2,-0E0,2.47E1,1.47E1,-0E0,1.6E-2,-2.7742915E-2,-0E0,-0E0,2.5676973E-2,-3.335196E-2,-0E0,3.414535E-2,6.386382E-2,-0E0,2.61E1,4.5318197E-2,-0E0,5.5E0,8E-3,-2.2897433E-2,-0E0,-0E0,3.08E1,-0E0,-7.023448E-3,5.5E0,-0E0,-0E0,2.98724E-2,2.2682985E-3,-0E0,2E-2,-0E0,1.92E1,2.29E1,-1.1353277E-2,-0E0,-0E0,-1.49278E-2,2.4938951E-3,2.12E1,-1.973137E-3,-0E0,-0E0,-4.095366E-3,-0E0,1E-3,-8.446589E-3,-0E0,3.62E1,-0E0,2E0,-0E0,7.01504E-3,-0E0,6.9249864E-3,-0E0,-0E0,7.151864E-4,-1.6717617E-3,-0E0],"split_indices":[2,5,2,1,2,2,2,1,3,1,2,1,2,3,3,2,1,3,3,3,1,0,0,2,1,5,5,1,2,3,5,2,3,1,0,1,2,3,0,3,0,3,3,2,2,1,0,3,1,2,2,0,0,3,0,0,0,1,1,0,3,0,3,0,1,0,0,0,0,0,0,0,0,2,0,3,3,0,1,0,0,0,0,0,0,0,0,0,3,0,0,3,1,0,0,0,3,0,0,5,0,0,0,0,0,2,0,3,3,0,0,0,0,0,3,0,0,0,0,0,1,0,0,3,0,5,0,0,0,0,0,0,0,0,0],"split_type":[0,0,0,0,0,0,0,0,0,0,0,0,0,0,0,0,0,0,0,0,0,0,0,0,0,0,0,0,0,0,0,0,0,0,0,0,0,0,0,0,0,0,0,0,0,0,0,0,0,0,0,0,0,0,0,0,0,0,0,0,0,0,0,0,0,0,0,0,0,0,0,0,0,0,0,0,0,0,0,0,0,0,0,0,0,0,0,0,0,0,0,0,0,0,0,0,0,0,0,0,0,0,0,0,0,0,0,0,0,0,0,0,0,0,0,0,0,0,0,0,0,0,0,0,0,0,0,0,0,0,0,0,0,0,0],"sum_hessian":[2.8625E4,2.57E4,2.925E3,1.2927E4,1.2773E4,1.0245E4,2.682E3,1.481E3,1.201E3,4.076E3,6.169E3,5.756E3,7.017E3,6.6E3,4.17E2,5.749E3,4.2E2,3.393E3,6.83E2,5.586E3,1.7E2,1.64E2,5.19E2,9.06E2,2.95E2,1.432E3,1.493E3,2.333E3,3.416E3,1.175E3,4.411E3,2.254E3,1.162E3,6.06E2,3E2,3.737E3,2.863E3,2.422E3,4.41E2,1.381E3,5.1E1,1.77E3,5.63E2,3.91E2,1.72E2,2.292E3,1.3E2,9.69E2,3.442E3,2.66E2,1.504E3,1.06E2,1.89E2,5.85E2,2.1E1,1.453E3,4E1,4.14E2,7.48E2,2.32E2,2.022E3,7.6E1,3.317E3,5.2E2,1.502E3,1.364E3,1.38E2,2.289E3,3E0,6.3E2,1.18E2,4.07E2,1.3E1,2.28E2,3.8E1,8.94E2,6.1E2,5E0,1.17E3,1.154E3,1.6E1,2.3E1,1.47E2,3.736E3,1E0,6.35E2,8.46E2,1E0,1.38E3,1.374E3,6E0,1.55E2,2.36E2,5.76E2,9E0,1.93E2,2.24E2,1.3E1,1.42E2,3.439E3,3E0,1.1E1,1.61E2,5.98E2,2.96E2,2.62E3,6.97E2,6.02E2,2.018E3,3.437E3,2E0,2E0,2.26E2,2.22E2,3.8E2,3.4E2,4E1,9.6E1,5.14E2,1.93E2,7.76E2,4.04E2,1E1,7.72E2,4E0,2.21E2,3E0,1.898E3,1.2E2,1.96E2,2.5E1,2.2E1,2.14E2,7.71E2,1E0],"tree_param":{"num_deleted":"0","num_feature":"8","num_nodes":"135","size_leaf_vector":"1"}},{"base_weights":[-0E0,-2.8542364E-1,1.0636705E0,9.301544E-2,-5.9214693E-1,1.1875751E0,-1.911933E-1,2.9071072E-2,5.8510736E-2,-2.749901E-3,4.9633038E-1,-4.1184622E-1,-7.7813596E-1,4.8155627E-1,-7.892463E-1,-2.7486965E-1,8.4838636E-2,-5.4016244E-1,-2.7945476E-2,3.1842064E-2,1.3649123E-2,5.488608E-1,-0E0,-0E0,-8.42787E-1,-2.2868061E-1,-4.8658544E-1,-2.6838043E-1,-0E0,-2.6389098E-2,-0E0,6.991806E-2,-0E0,-8.3221E-3,-0E0,9.033843E-2,-0E0,1.656021E-2,-0E0,-0E0,5.286729E-1,-0E0,3.0134476E-3,-1.6275281E-2,-0E0,1.6782966E-2,-0E0,-1.4627018E-2,-0E0,-8.442421E-3,-0E0,-0E0,-3.8231032E-3,-1.2781269E-2,-0E0,-0E0,-5.6089845E-4],"categories":[],"categories_nodes":[],"categories_segments":[],"categories_sizes":[],"default_left":[0,0,0,0,0,0,0,0,0,0,0,0,0,0,0,0,0,0,0,0,0,0,0,0,0,0,0,0,0,0,0,0,0,0,0,0,0,0,0,0,0,0,0,0,0,0,0,0,0,0,0,0,0,0,0,0,0],"id":4,"left_children":[1,3,5,9,11,7,13,-1,-1,15,21,25,17,39,23,49,19,43,-1,31,-1,37,-1,-1,29,27,47,33,-1,-1,-1,35,51,-1,-1,41,-1,-1,-1,-1,45,-1,-1,-1,-1,-1,-1,-1,-1,-1,-1,-1,53,55,-1,-1,-1],"loss_changes":[8.707311E3,2.668064E3,1.04396E3,4.3374142E2,3.0334326E2,6.395137E2,2.2185818E2,0E0,0E0,2.0596095E2,3.1197388E1,1.9740723E1,6.877588E1,4.6658325E0,2.3153152E1,1.7883911E0,6.2250813E1,3.0290527E0,0E0,1.1197649E1,0E0,4.8113403E0,0E0,0E0,1.4247452E1,2.4251633E1,2.26062E0,8.351288E0,0E0,0E0,0E0,6.893902E0,1.59608E-2,0E0,0E0,3.9645195E0,0E0,0E0,0E0,0E0,3.020485E0,0E0,0E0,0E0,0E0,0E0,0E0,0E0,0E0,0E0,0E0,0E0,5.5101164E-2,7.400686E-2,0E0,0E0,0E0],"parents":[2147483647,0,0,1,1,2,2,5,5,3,3,4,4,6,6,9,9,12,12,16,16,10,10,14,14,11,11,25,25,24,24,19,19,27,27,31,31,21,21,13,13,35,35,17,17,40,40,26,26,15,15,32,32,52,52,53,53],"right_children":[2,4,6,10,12,8,14,-1,-1,16,22,26,18,40,24,50,20,44,-1,32,-1,38,-1,-1,30,28,48,34,-1,-1,-1,36,52,-1,-1,42,-1,-1,-1,-1,46,-1,-1,-1,-1,-1,-1,-1,-1,-1,-1,-1,54,56,-1,-1,-1],"split_conditions":[2.3E-2,5E-1,7E-1,1E-3,1.2E0,6.1E-2,-3.8268343E-1,2.9071072E-2,5.8510736E-2,6.2E-1,4E-1,-3.8268343E-1,-3.8268343E-1,7.84E-1,7.77E-1,6.16E-1,7.61E-1,8.64E-1,-2.7945476E-2,3E-1,1.3649123E-2,8.39E-1,-0E0,-0E0,6.6E-2,7.61E-1,8.17E-1,8E-3,-0E0,-2.6389098E-2,-0E0,7.36E-1,6.77E-1,-8.3221E-3,-0E0,6.29E-1,-0E0,1.656021E-2,-0E0,-0E0,1.9E0,-0E0,3.0134476E-3,-1.6275281E-2,-0E0,1.6782966E-2,-0E0,-1.4627018E-2,-0E0,-8.442421E-3,-0E0,-0E0,-1.8369701E-16,6.84E-1,-0E0,-0E0,-5.6089845E-4],"split_indices":[1,5,5,1,5,1,7,0,0,0,5,7,7,0,0,0,0,0,0,5,0,0,0,0,1,0,0,1,0,0,0,0,0,0,0,0,0,0,0,0,5,0,0,0,0,0,0,0,0,0,0,0,7,0,0,0,0],"split_type":[0,0,0,0,0,0,0,0,0,0,0,0,0,0,0,0,0,0,0,0,0,0,0,0,0,0,0,0,0,0,0,0,0,0,0,0,0,0,0,0,0,0,0,0,0,0,0,0,0,0,0,0,0,0,0,0,0],"sum_hessian":[2.8625E4,2.2554E4,6.071E3,9.951E3,1.2603E4,5.598E3,4.73E2,4.455E3,1.143E3,7.842E3,2.109E3,6.674E3,5.929E3,1.44E2,3.29E2,2.187E3,5.655E3,2.581E3,3.348E3,5.184E3,4.71E2,1.828E3,2.81E2,8E0,3.21E2,2.323E3,4.351E3,2.023E3,3E2,3.13E2,8E0,3.365E3,1.819E3,2.002E3,2.1E1,2.86E3,5.05E2,1.823E3,5E0,8E0,1.36E2,1.54E2,2.706E3,2.569E3,1.2E1,1.31E2,5E0,4.343E3,8E0,2.109E3,7.8E1,7.28E2,1.091E3,4.34E2,6.57E2,2E1,4.14E2],"tree_param":{"num_deleted":"0","num_feature":"8","num_nodes":"57","size_leaf_vector":"1"}},{"base_weights":[-0E0,4.7112086E-1,-5.2720404E-1,3.8271144E-2,3.938188E-1,-2.2282656E-1,-6.9460016E-1,5.0353867E-1,7.726835E-2,-9.1059536E-1,-1.4395381E-2,6.193075E-1,2.2125632E-1,-4.5055914E-1,-3.3528596E-2,-0E0,-3.2337782E-1,3.6340046E-1,-0E0,1.7824637E-2,-8.0378056E-2,-0E0,-5.27544E-1,6.4112025E-1,-0E0,1.7269698E-1,-3.1901142E-3,2.2105986E-1,2.0564035E-2,4.0100688E-1,-0E0,2.192835E-1,-0E0,3.2419014E-1,-0E0,-0E0,2.5610828E-1,-0E0,-3.3184445E-1,2.8612158E-1,-0E0,9.019538E-3,-0E0,-8.15451E-3,-1.8717378E-2,-0E0,1.2132283E-2,-1.0089856E-2,-0E0,1.2225732E-2,-0E0,-0E0,-1.0345625E-1,-3.2512497E-3,-0E0,-0E0,-2.1899235E-2,-5.7991344E-2,-0E0,-0E0,-1.998326E-3,-0E0,-1.4382069E-2,-0E0,-8.030025E-4,-5.922241E-4,-0E0],"categories":[],"categories_nodes":[],"categories_segments":[],"categories_sizes":[],"default_left":[0,0,0,0,0,0,0,0,0,0,0,0,0,0,0,0,0,0,0,0,0,0,0,0,0,0,0,0,0,0,0,0,0,0,0,0,0,0,0,0,0,0,0,0,0,0,0,0,0,0,0,0,0,0,0,0,0,0,0,0,0,0,0,0,0,0,0],"id":5,"left_children":[1,3,5,-1,7,15,9,11,25,13,-1,23,17,21,-1,19,37,29,55,-1,51,-1,43,27,-1,31,61,33,-1,45,-1,35,-1,49,-1,-1,39,-1,47,41,-1,-1,-1,65,-1,-1,-1,-1,-1,-1,-1,-1,53,-1,-1,-1,57,59,-1,-1,-1,-1,63,-1,-1,-1,-1],"loss_changes":[7.1091973E3,7.740066E2,5.9543994E2,0E0,4.2552173E2,1.3249269E2,2.5438086E2,2.4606543E2,4.628136E1,2.236333E2,0E0,4.748755E1,1.250253E2,8.457562E1,0E0,9.751203E1,1.4802582E1,3.1159454E1,3.4913164E-1,0E0,8.8839865E-1,0E0,2.8579712E0,3.1548828E1,0E0,2.882862E1,2.533741E-1,2.6439781E1,0E0,2.3809204E0,0E0,1.8457664E1,0E0,1.0715942E0,0E0,0E0,1.0286774E1,0E0,2.2784424E0,5.4155045E0,0E0,0E0,0E0,8.9578375E-2,0E0,0E0,0E0,0E0,0E0,0E0,0E0,0E0,6.405153E-1,0E0,0E0,0E0,1.6552141E0,6.268003E-1,0E0,0E0,0E0,0E0,3.539126E-1,0E0,0E0,0E0,0E0],"parents":[2147483647,0,0,1,1,2,2,4,4,6,6,7,7,9,9,5,5,12,12,15,15,13,13,11,11,8,8,23,23,17,17,25,25,27,27,31,31,16,16,36,36,39,39,22,22,29,29,38,38,33,33,20,20,52,52,18,18,56,56,57,57,26,26,62,62,43,43],"right_children":[2,4,6,-1,8,16,10,12,26,14,-1,24,18,22,-1,20,38,30,56,-1,52,-1,44,28,-1,32,62,34,-1,46,-1,36,-1,50,-1,-1,40,-1,48,42,-1,-1,-1,66,-1,-1,-1,-1,-1,-1,-1,-1,54,-1,-1,-1,58,60,-1,-1,-1,-1,64,-1,-1,-1,-1],"split_conditions":[5E-1,-1.2E0,9E-1,3.8271144E-2,2E1,-7.0710677E-1,1.83E1,3E-1,2.42E1,-3.8268343E-1,-1.4395381E-2,3.8268343E-1,6.123234E-17,4.1E0,-3.3528596E-2,7.4E0,-1.2E0,3.8268343E-1,-3.8268343E-1,1.7824637E-2,6E-1,-0E0,1.2E0,2.1E0,-0E0,3.8268343E-1,-9.238795E-1,2E-1,2.0564035E-2,-7E-1,-0E0,2.04E1,-0E0,7E-1,-0E0,-0E0,4E-1,-0E0,3.12E1,2.39E1,-0E0,9.019538E-3,-0E0,7.0710677E-1,-1.8717378E-2,-0E0,1.2132283E-2,-1.0089856E-2,-0E0,1.2225732E-2,-0E0,-0E0,3.18E1,-3.2512497E-3,-0E0,-0E0,1.76E1,-9E-1,-0E0,-0E0,-1.998326E-3,-0E0,1E-1,-0E0,-8.030025E-4,-5.922241E-4,-0E0],"split_indices":[5,3,5,0,3,7,3,5,3,7,0,6,7,3,0,3,3,6,6,0,5,0,5,3,0,6,6,5,0,3,0,3,0,3,0,0,5,0,3,3,0,0,0,6,0,0,0,0,0,0,0,0,3,0,0,0,3,3,0,0,0,0,5,0,0,0,0],"split_type":[0,0,0,0,0,0,0,0,0,0,0,0,0,0,0,0,0,0,0,0,0,0,0,0,0,0,0,0,0,0,0,0,0,0,0,0,0,0,0,0,0,0,0,0,0,0,0,0,0,0,0,0,0,0,0,0,0,0,0,0,0,0,0,0,0,0,0],"sum_hessian":[2.8625E4,1.5136E4,1.3489E4,1.212E3,1.3924E4,4.999E3,8.49E3,1.0105E4,3.819E3,3.999E3,4.491E3,6.914E3,3.191E3,1.392E3,2.607E3,1.359E3,3.64E3,2.129E3,1.062E3,2.55E2,1.104E3,7.3E1,1.319E3,6.567E3,3.47E2,2.315E3,1.504E3,8.43E2,5.724E3,1.942E3,1.87E2,2.035E3,2.8E2,6.43E2,2E2,2.62E2,1.773E3,4.9E1,3.591E3,1.546E3,2.27E2,1.46E3,8.6E1,3.69E2,9.5E2,1.8E1,1.924E3,3.516E3,7.5E1,4.13E2,2.3E2,3.55E2,7.49E2,7.37E2,1.2E1,3.35E2,7.27E2,5.95E2,1.32E2,3E0,5.92E2,2.06E2,1.298E3,4.3E2,8.68E2,2.92E2,7.7E1],"tree_param":{"num_deleted":"0","num_feature":"8","num_nodes":"67","size_leaf_vector":"1"}},{"base_weights":[-0E0,-2.1529445E-1,1.8975472E0,-7.18948E-1,2.0649283E-1,4.8828283E-1,-3.093178E-1,-7.8367096E-1,2.073095E-1,1.6442083E-1,6.54546E-1,1.8533184E-1,8.5538775E-1,-6.9421077E-1,-1.3943487E0,-7.92301E-1,-1.6085328E-1,-3.4599298E-1,-9.3170613E-1,1.2723116E0,2.2286854E0,-0E0,-4.2577338E-1,6.0163784E-1,1.1684382E0,1.0532609E0,-0E0,7.1602464E-1,5.1273618E-2,1.127528E0,-0E0,3.8479954E-1,-0E0,-0E0,2.253407E0,5.003362E-1,-1.7824972E-2,-2.8702961E-2,-0E0,-1.2116989E-1,-5.510783E-1,-6.3402253E-1,-0E0,-2.8481826E-1,-0E0,2.2992301E-1,-1.6633207E-1,-0E0,1.607932E-2,-0E0,2.3361103E-1,-6.622796E-1,-0E0,1.3080239E0,-0E0,-4.092977E-1,-0E0,2.8313297E-1,-0E0,-0E0,-1.7508555E-2,-0E0,-3.7349334E-1,3.5906696E-1,-0E0,3.921497E-1,-0E0,-0E0,1.5657878E-2,-0E0,-2.0142156E-1,-0E0,-4.2087156E-2,-0E0,5.5180323E-1,7.801343E-1,-0E0,-0E0,9.0449214E-1,-0E0,-3.9839953E-1,-0E0,-5.176178E-1,-2.0115778E-1,-0E0,-0E0,-4.5817944E-1,2.3273806E-1,-0E0,-0E0,1.314804E0,-0E0,3.4603838E-2,-0E0,3.3852553E-1,2.256022E0,-0E0,6.041419E-1,-0E0,-1.5687399E-2,-0E0,2.796977E-2,-0E0,-0E0,6.772351E-2,-0E0,1.2015965E-2,1.3294502E-1,-0E0,-2.1982607E-1,-0E0,-1.9933548E-2,-0E0,3.9510205E-2,-0E0,-0E0,-5.064095E-3,5.67493E-3,-0E0,-0E0,1.8392228E-2,-1.8103072E-2,-0E0,1.0531495E-2,-0E0,-2.2895765E-2,3.4954235E-2,-0E0,-8.707589E-2,-0E0,3.8704735E-3,-1.11842915E-1,-0E0,-0E0,-1.3559358E-1,-1.4131801E-1,-0E0,-0E0,-4.5792917E-3,-3.522035E-2,-0E0,-3.8833267E-3,-0E0,-0E0,-1.1474493E-2,-0E0,-6.6414643E-3,-2.4163617E-2,-0E0,-2.6376816E-2,-0E0,-0E0,-8.492787E-4],"categories":[],"categories_nodes":[],"categories_segments":[],"categories_sizes":[],"default_left":[0,0,0,0,0,0,0,0,0,0,0,0,0,0,0,0,0,0,0,0,0,0,0,0,0,0,0,0,0,0,0,0,0,0,0,0,0,0,0,0,0,0,0,0,0,0,0,0,0,0,0,0,0,0,0,0,0,0,0,0,0,0,0,0,0,0,0,0,0,0,0,0,0,0,0,0,0,0,0,0,0,0,0,0,0,0,0,0,0,0,0,0,0,0,0,0,0,0,0,0,0,0,0,0,0,0,0,0,0,0,0,0,0,0,0,0,0,0,0,0,0,0,0,0,0,0,0,0,0,0,0,0,0,0,0,0,0,0,0,0,0,0,0,0,0,0,0,0,0,0,0,0,0],"id":6,"left_children":[1,3,19,7,5,9,21,13,35,49,11,31,23,15,71,17,43,61,37,53,33,125,39,25,27,29,45,75,-1,91,-1,105,83,-1,95,73,147,-1,-1,69,41,51,-1,79,107,47,55,115,-1,-1,57,111,-1,89,-1,59,-1,63,139,-1,-1,-1,143,65,-1,67,-1,-1,-1,-1,109,-1,-1,-1,97,77,-1,-1,101,-1,81,-1,121,85,87,-1,99,93,-1,-1,113,-1,-1,-1,123,103,-1,119,-1,-1,-1,-1,-1,-1,-1,-1,-1,117,-1,145,-1,-1,-1,-1,-1,-1,-1,-1,-1,-1,-1,-1,-1,-1,-1,127,129,-1,131,-1,-1,133,-1,-1,135,137,-1,-1,-1,141,-1,-1,-1,-1,-1,-1,-1,149,-1,151,-1,-1,-1],"loss_changes":[1.1726892E4,5.5111772E3,2.528623E2,7.665298E2,2.0355092E3,4.0810498E2,1.6727716E2,3.9937012E2,9.259217E1,4.3373154E1,4.4329102E2,1.02481735E2,1.3360132E2,4.209795E2,2.081958E1,3.8078564E2,4.859302E1,2.5047638E1,8.178027E1,4.161487E1,9.866797E1,9.312524E-1,6.41983E1,5.741062E2,1.420149E2,1.0338574E2,4.4427486E1,1.7927063E1,0E0,1.1113159E1,0E0,5.471298E0,1.4243487E1,0E0,1.0892578E1,1.865078E1,3.4855455E-2,0E0,0E0,2.1420454E1,5.061859E1,4.290576E1,0E0,1.5851204E1,5.019523E0,6.3579655E1,4.0017582E1,4.1317043E0,0E0,0E0,3.4344894E1,4.578369E0,0E0,1.4090088E1,0E0,2.914938E1,0E0,2.4331223E1,3.0019447E-1,0E0,0E0,0E0,2.658081E-1,2.1760513E1,0E0,2.6615097E1,0E0,0E0,0E0,0E0,4.6673813E0,0E0,0E0,0E0,9.580933E0,1.7873047E1,0E0,0E0,6.94989E0,0E0,2.0892853E1,0E0,1.2188416E0,3.9498184E1,1.56001E1,0E0,7.5085106E0,1.1101591E1,0E0,0E0,4.532837E0,0E0,0E0,0E0,1.0264091E0,6.413086E0,0E0,2.5784454E0,0E0,0E0,0E0,0E0,0E0,0E0,0E0,0E0,0E0,2.8169851E0,0E0,2.3680496E-1,0E0,0E0,0E0,0E0,0E0,0E0,0E0,0E0,0E0,0E0,0E0,0E0,0E0,0E0,0E0,4.447093E0,4.289496E0,0E0,3.0692534E0,0E0,0E0,1.2231684E0,0E0,0E0,4.1947746E-1,5.661268E-1,0E0,0E0,0E0,2.9001644E0,0E0,0E0,0E0,0E0,0E0,0E0,0E0,1.6729206E-2,0E0,1.4504477E-2,0E0,0E0,0E0],"parents":[2147483647,0,0,1,1,4,4,3,3,5,5,10,10,7,7,13,13,15,15,2,2,6,6,12,12,23,23,24,24,25,25,11,11,20,20,8,8,18,18,22,22,40,40,16,16,26,26,45,45,9,9,41,41,19,19,46,46,50,50,55,55,17,17,57,57,63,63,65,65,39,39,14,14,35,35,27,27,75,75,43,43,80,80,32,32,83,83,84,84,53,53,29,29,87,87,34,34,74,74,86,86,78,78,95,95,31,31,44,44,70,70,51,51,90,90,47,47,107,107,97,97,82,82,94,94,21,21,125,125,126,126,128,128,131,131,134,134,135,135,58,58,139,139,62,62,109,109,36,36,147,147,149,149],"right_children":[2,4,20,8,6,10,22,14,36,50,12,32,24,16,72,18,44,62,38,54,34,126,40,26,28,30,46,76,-1,92,-1,106,84,-1,96,74,148,-1,-1,70,42,52,-1,80,108,48,56,116,-1,-1,58,112,-1,90,-1,60,-1,64,140,-1,-1,-1,144,66,-1,68,-1,-1,-1,-1,110,-1,-1,-1,98,78,-1,-1,102,-1,82,-1,122,86,88,-1,100,94,-1,-1,114,-1,-1,-1,124,104,-1,120,-1,-1,-1,-1,-1,-1,-1,-1,-1,118,-1,146,-1,-1,-1,-1,-1,-1,-1,-1,-1,-1,-1,-1,-1,-1,-1,128,130,-1,132,-1,-1,134,-1,-1,136,138,-1,-1,-1,142,-1,-1,-1,-1,-1,-1,-1,150,-1,152,-1,-1,-1],"split_conditions":[8.9E-2,6.1E0,9.1E-2,8.8E-2,5E-1,6.99E-1,7E-1,7.67E-1,7.83E-1,6.29E-1,7.7E0,8E-1,8.09E-1,8.7E-2,8.4E-2,8.3E-2,4.5E0,6E-2,5.8E0,1.8E0,5.1E-1,7.69E-1,6.46E-1,3.6E-2,9.2E0,9.4E0,8.6E0,8.51E-1,5.1273618E-2,7.01E-1,-0E0,6.2E0,8.7E-2,-0E0,2.9E0,2.2E0,6E0,-2.8702961E-2,-0E0,2.2E-2,8.1E-2,8.15E-1,-0E0,5.53E-1,7.16E-1,7.56E-1,7.88E-1,6.3E-2,1.607932E-2,-0E0,9.3E0,9.6E0,-0E0,1.7E0,-0E0,7.31E-1,-0E0,6.84E-1,2E-2,-0E0,-1.7508555E-2,-0E0,1E-1,7.5E-2,-0E0,6.5E-1,-0E0,-0E0,1.5657878E-2,-0E0,8E0,-0E0,-4.2087156E-2,-0E0,1.7E0,7.2E-2,-0E0,-0E0,8.47E-1,-0E0,4E-1,-0E0,3.7E0,8.4E-2,8.37E-1,-0E0,7.5E0,6.3E0,-0E0,-0E0,8.96E-1,-0E0,3.4603838E-2,-0E0,8.36E-1,2.2E0,-0E0,4.39E-1,-0E0,-1.5687399E-2,-0E0,2.796977E-2,-0E0,-0E0,6.772351E-2,-0E0,1.2015965E-2,9E-1,-0E0,4.69E-1,-0E0,-1.9933548E-2,-0E0,3.9510205E-2,-0E0,-0E0,-5.064095E-3,5.67493E-3,-0E0,-0E0,1.8392228E-2,-1.8103072E-2,-0E0,1.0531495E-2,-0E0,2.4E-2,6.6E0,-0E0,8.7E-2,-0E0,3.8704735E-3,5.93E-1,-0E0,-0E0,9.1E0,2.7E-2,-0E0,-0E0,-4.5792917E-3,6.84E-1,-0E0,-3.8833267E-3,-0E0,-0E0,-1.1474493E-2,-0E0,-6.6414643E-3,2.1E0,-0E0,7.84E-1,-0E0,-0E0,-8.492787E-4],"split_indices":[2,4,2,2,5,0,5,0,0,0,4,0,0,2,2,2,4,2,4,5,0,0,0,2,4,4,4,0,0,0,0,4,2,0,5,4,4,0,0,2,2,0,0,0,0,0,0,2,0,0,4,4,0,4,0,0,0,0,2,0,0,0,5,2,0,0,0,0,0,0,4,0,0,0,5,2,0,0,0,0,5,0,4,2,0,0,4,4,0,0,0,0,0,0,0,4,0,0,0,0,0,0,0,0,0,0,0,5,0,0,0,0,0,0,0,0,0,0,0,0,0,0,0,0,0,2,4,0,2,0,0,0,0,0,4,2,0,0,0,0,0,0,0,0,0,0,0,5,0,0,0,0,0],"split_type":[0,0,0,0,0,0,0,0,0,0,0,0,0,0,0,0,0,0,0,0,0,0,0,0,0,0,0,0,0,0,0,0,0,0,0,0,0,0,0,0,0,0,0,0,0,0,0,0,0,0,0,0,0,0,0,0,0,0,0,0,0,0,0,0,0,0,0,0,0,0,0,0,0,0,0,0,0,0,0,0,0,0,0,0,0,0,0,0,0,0,0,0,0,0,0,0,0,0,0,0,0,0,0,0,0,0,0,0,0,0,0,0,0,0,0,0,0,0,0,0,0,0,0,0,0,0,0,0,0,0,0,0,0,0,0,0,0,0,0,0,0,0,0,0,0,0,0,0,0,0,0,0,0],"sum_hessian":[2.8625E4,2.57E4,2.925E3,1.1821E4,1.3879E4,9.101E3,4.778E3,1.115E4,6.71E2,3.292E3,5.809E3,1.891E3,3.918E3,9.87E3,1.28E3,8.178E3,1.692E3,2.118E3,6.06E3,1.119E3,1.806E3,1.334E3,3.444E3,2.342E3,1.576E3,1.281E3,1.061E3,9.6E2,6.16E2,1.199E3,8.2E1,1.13E3,7.61E2,2E1,1.786E3,4.84E2,1.87E2,5.836E3,2.24E2,1.237E3,2.207E3,1.793E3,4.14E2,1.138E3,5.54E2,5.95E2,4.66E2,2.65E2,3.3E2,8.67E2,2.425E3,1.741E3,5.2E1,1.083E3,3.6E1,3.15E2,1.51E2,2.079E3,3.46E2,7.5E1,2.4E2,1.21E2,1.997E3,1.481E3,5.98E2,1.383E3,9.8E1,5.05E2,8.78E2,2.62E2,9.75E2,5E0,1.275E3,2.5E1,4.59E2,8.38E2,1.22E2,1.93E2,6.45E2,4.57E2,6.81E2,2E2,4.81E2,3.51E2,4.1E2,9.6E1,2.55E2,2.87E2,1.23E2,3E0,1.08E3,4.5E1,1.154E3,5.5E1,2.32E2,1.784E3,2E0,4.09E2,5E1,2.23E2,3.2E1,6.15E2,3E1,1E0,1.783E3,5.3E1,1.077E3,2.83E2,2.71E2,9.15E2,6E1,1.74E3,1E0,1.079E3,1E0,1.21E2,1.44E2,2.18E2,6.5E1,5E0,4.04E2,3.57E2,1.24E2,2.24E2,8E0,1.004E3,3.3E2,3.49E2,6.55E2,4.9E1,2.81E2,6.42E2,1.3E1,1.39E2,5.03E2,4.84E2,1.9E1,4.5E1,4.39E2,2.41E2,1.05E2,1.9E2,5.1E1,9.1E1,1.906E3,8E0,9.07E2,1.61E2,2.6E1,1.59E2,2E0,3E0,1.56E2],"tree_param":{"num_deleted":"0","num_feature":"8","num_nodes":"153","size_leaf_vector":"1"}},{"base_weights":[-0E0,-5.734618E-1,4.40335E-1,7.500946E-1,-2.0087513E-1,-7.3330206E-1,-3.198224E-1,-0E0,-4.9936184E-1,7.0370984E-1,5.2355643E-2,7.386041E-1,9.61229E-2,-3.92891E-1,-8.471765E-2,-3.0803757E-2,-1.9191274E-2,1.1242056E-2,2.3368968E-2,-2.070794E-1,-2.0738712E-2,1.0645463E-1,-8.813031E-2,6.6807484E-3,-0E0,-0E0,-4.170773E-1,-0E0,-2.449359E-1,-0E0,-5.570933E-3,-0E0,-1.4571193E-1,-1.5940847E-1,-0E0,-0E0,3.37493E-3,-0E0,-5.174636E-3,-0E0,-2.4889654E-1,-7.5622424E-3,-0E0,-4.1753623E-1,-0E0,-0E0,-1.3175628E-2],"categories":[],"categories_nodes":[],"categories_segments":[],"categories_sizes":[],"default_left":[0,0,0,0,0,0,0,0,0,0,0,0,0,0,0,0,0,0,0,0,0,0,0,0,0,0,0,0,0,0,0,0,0,0,0,0,0,0,0,0,0,0,0,0,0,0,0],"id":7,"left_children":[1,5,3,9,7,15,13,21,19,11,-1,17,35,25,29,-1,-1,-1,-1,27,-1,23,31,-1,-1,-1,43,-1,39,-1,-1,-1,33,37,-1,-1,-1,-1,-1,-1,41,-1,-1,45,-1,-1,-1],"loss_changes":[7.2255264E3,3.975769E2,3.276109E3,2.6345752E2,3.2395056E2,3.513623E1,3.8804016E1,2.9043903E1,2.9899902E1,1.4216602E2,0E0,2.9908203E1,2.1944523E0,1.3833618E1,8.566932E0,0E0,0E0,0E0,0E0,1.0913624E1,0E0,1.4249514E1,6.492052E0,0E0,0E0,0E0,7.0422363E-1,0E0,1.5829163E0,0E0,0E0,0E0,3.4836788E0,1.8842964E0,0E0,0E0,0E0,0E0,0E0,0E0,1.4203873E0,0E0,0E0,5.460205E-1,0E0,0E0,0E0],"parents":[2147483647,0,0,2,2,1,1,4,4,3,3,9,9,6,6,5,5,11,11,8,8,7,7,21,21,13,13,19,19,14,14,22,22,32,32,12,12,33,33,28,28,40,40,26,26,43,43],"right_children":[2,6,4,10,8,16,14,22,20,12,-1,18,36,26,30,-1,-1,-1,-1,28,-1,24,32,-1,-1,-1,44,-1,40,-1,-1,-1,34,38,-1,-1,-1,-1,-1,-1,42,-1,-1,46,-1,-1,-1],"split_conditions":[6.1E0,4.7E0,5E-1,9.6E0,1.1E0,2.2E0,5.7E0,7E-1,-3.8268343E-1,3.8268343E-1,5.2355643E-2,6.7E0,6.2E0,-9.238795E-1,7E-1,-3.0803757E-2,-1.9191274E-2,1.1242056E-2,2.3368968E-2,1.2E0,-2.0738712E-2,-3.8268343E-1,-3.8268343E-1,6.6807484E-3,-0E0,-0E0,4.8E0,-0E0,-3.8268343E-1,-0E0,-5.570933E-3,-0E0,9.6E0,6.3E0,-0E0,-0E0,3.37493E-3,-0E0,-5.174636E-3,-0E0,4.9E0,-7.5622424E-3,-0E0,-9.238795E-1,-0E0,-0E0,-1.3175628E-2],"split_indices":[4,4,5,4,5,4,4,5,7,6,0,4,4,6,5,0,0,0,0,5,0,7,7,0,0,0,5,0,6,0,0,0,4,4,0,0,0,0,0,0,5,0,0,7,0,0,0],"split_type":[0,0,0,0,0,0,0,0,0,0,0,0,0,0,0,0,0,0,0,0,0,0,0,0,0,0,0,0,0,0,0,0,0,0,0,0,0,0,0,0,0,0,0,0,0,0,0],"sum_hessian":[2.8625E4,1.2409E4,1.6216E4,1.1039E4,5.177E3,7.369E3,5.04E3,3.041E3,2.136E3,1.0645E4,3.94E2,9.911E3,7.34E2,3.52E3,1.52E3,1.521E3,5.848E3,1.238E3,8.673E3,1.054E3,1.082E3,1.516E3,1.525E3,6.33E2,8.83E2,3.17E2,3.203E3,1.19E2,9.35E2,9.56E2,5.64E2,6.62E2,8.63E2,8.58E2,5E0,2.5E1,7.09E2,6.2E1,7.96E2,4E0,9.31E2,9.3E2,1E0,3.2E3,3E0,3.05E2,2.895E3],"tree_param":{"num_deleted":"0","num_feature":"8","num_nodes":"47","size_leaf_vector":"1"}},{"base_weights":[-0E0,-5.573161E-1,4.2736992E-1,1.3076738E-1,1.2845824E0,2.8846306E-1,-3.1322294E-1,-1.0888351E0,-4.4269526E-1,-7.5131696E-1,-2.5639942E-1,-0E0,1.3786756E0,3.7151348E-2,4.6687073E-1,1.6121167E-1,7.6125747E-1,-6.8785936E-1,4.817982E-1,-0E0,9.8058045E-1,-3.2113653E-1,2.23894E-1,-1.837996E-1,1.7054719E-1,-0E0,4.150938E-1,4.1992117E-2,-0E0,-4.2961645E-1,-0E0,1.0377119E0,-0E0,-3.5589162E-2,-1.4971726E-1,8.0673856E-1,-0E0,-0E0,8.707909E-1,-0E0,-4.675538E-1,-0E0,4.3331847E-1,-0E0,-7.7112275E-1,-4.3400815E-1,-0E0,-7.684634E-1,-0E0,-3.7596178E-1,-1.0061995E-1,-2.7279893E-1,1.8257697E-1,-2.064878E-2,-2.8498036E-1,-3.3959097E-1,-0E0,2.644319E-2,-0E0,-0E0,5.2716845E-1,5.7133174E-1,-0E0,-0E0,1.0563363E0,-0E0,-2.9974985E-1,-0E0,3.2274034E-2,-5.0669265E-1,-0E0,-7.7476245E-1,-2.3257945E-1,-8.658447E-3,-0E0,-8.088899E-2,-0E0,-0E0,1.7621266E-2,-1.285963E-1,-0E0,-0E0,-2.3449283E-2,-7.5450107E-3,-0E0,-0E0,-8.267527E-1,-0E0,2.3351532E-1,-3.1750393E-1,-0E0,7.787394E-3,-0E0,-0E0,-8.3051336E-1,-9.17056E-2,-0E0,-0E0,1.3724484E-2,5.291237E-2,-0E0,-0E0,1.983716E-1,-0E0,-2.6798844E-1,-0E0,7.964994E-3,-1.1130934E-2,-0E0,-2.5080921E-2,-0E0,-0E0,-4.314333E-3,6.6878155E-2,-0E0,-1.0183053E-2,-0E0,-1.0478008E-2,-0E0,-0E0,-1.10165454E-1,-2.3066297E-2,-0E0,-0E0,5.819657E-2,-0E0,1.00806415E-1,-0E0,3.754717E-3,-0E0,-1.3138584E-2,-0E0,-1.1590213E-1,-0E0,-3.612783E-3,-0E0,-2.8531462E-2,-1.93791E-1,-0E0,-0E0,-2.2499835E-1,-7.539918E-3,-0E0,-0E0,1.1892064E-2,4.663875E-2,-0E0,-0E0,1.7487817E-3,-0E0,2.1514685E-3,-4.394674E-3,-0E0,-5.9552747E-4,-0E0],"categories":[],"categories_nodes":[],"categories_segments":[],"categories_sizes":[],"default_left":[0,0,0,0,0,0,0,0,0,0,0,0,0,0,0,0,0,0,0,0,0,0,0,0,0,0,0,0,0,0,0,0,0,0,0,0,0,0,0,0,0,0,0,0,0,0,0,0,0,0,0,0,0,0,0,0,0,0,0,0,0,0,0,0,0,0,0,0,0,0,0,0,0,0,0,0,0,0,0,0,0,0,0,0,0,0,0,0,0,0,0,0,0,0,0,0,0,0,0,0,0,0,0,0,0,0,0,0,0,0,0,0,0,0,0,0,0,0,0,0,0,0,0,0,0,0,0,0,0,0,0,0,0,0,0,0,0,0,0,0,0,0,0,0,0,0,0,0,0,0,0,0,0,0,0],"id":8,"left_children":[1,7,3,5,11,13,29,33,9,47,21,-1,27,23,15,17,35,43,19,99,31,49,41,45,25,75,59,-1,-1,39,151,63,-1,-1,83,37,-1,123,57,-1,69,-1,97,-1,85,129,95,121,-1,53,51,65,87,-1,55,117,-1,-1,-1,143,61,77,-1,-1,67,-1,89,-1,-1,71,135,81,73,-1,-1,79,-1,-1,-1,111,-1,-1,-1,-1,-1,-1,93,-1,91,115,-1,-1,-1,-1,109,119,113,-1,-1,101,103,-1,105,-1,107,-1,-1,-1,-1,-1,-1,-1,-1,149,-1,-1,-1,-1,-1,-1,131,-1,-1,-1,125,-1,127,-1,-1,-1,-1,-1,133,-1,-1,-1,137,139,-1,-1,141,-1,-1,-1,145,147,-1,-1,-1,-1,-1,153,-1,-1,-1],"loss_changes":[6.8165166E3,6.024214E2,3.9814915E3,8.4732074E2,4.774131E2,3.585739E2,8.700137E1,5.350293E1,4.949707E2,2.9661133E1,2.1709198E2,0E0,9.472363E1,1.1722082E2,3.6671826E2,7.0677344E2,5.1731445E1,3.221631E1,4.4339886E2,2.0521939E0,5.785388E1,2.5556519E1,4.0446854E1,3.1653454E1,1.5438712E2,6.2224197E0,1.6245361E1,0E0,0E0,4.239093E1,1.0834683E-2,1.1745483E1,0E0,0E0,5.01152E0,6.151306E1,0E0,4.47063E-1,2.2705933E1,0E0,6.385895E0,0E0,2.067253E0,0E0,4.7824097E0,3.7899017E-1,2.3800063E0,5.0439453E-1,0E0,3.0037354E1,8.5674835E1,1.1462288E1,4.294676E0,0E0,5.1781982E1,9.646301E-1,0E0,0E0,0E0,6.1093945E-2,1.9145218E1,5.7694397E0,0E0,0E0,9.944092E0,0E0,2.8876343E0,0E0,0E0,2.260794E1,1.212926E-1,5.2883606E0,1.9872631E1,0E0,0E0,5.5023203E0,0E0,0E0,0E0,1.4701443E0,0E0,0E0,0E0,0E0,0E0,0E0,2.4388733E0,0E0,2.7456284E0,1.071312E0,0E0,0E0,0E0,0E0,1.8108826E0,7.5119185E-1,1.3283881E0,0E0,0E0,2.3132633E1,2.003717E1,0E0,1.3232302E1,0E0,9.147619E0,0E0,0E0,0E0,0E0,0E0,0E0,0E0,0E0,4.9970508E-2,0E0,0E0,0E0,0E0,0E0,0E0,2.5399446E-1,0E0,0E0,0E0,6.9107366E-1,0E0,3.9696813E-1,0E0,0E0,0E0,0E0,0E0,2.2591662E-1,0E0,0E0,0E0,4.8735166E0,1.485096E0,0E0,0E0,1.5423136E0,0E0,0E0,0E0,6.001587E-1,3.581599E-1,0E0,0E0,0E0,0E0,0E0,1.9052939E-1,0E0,0E0,0E0],"parents":[2147483647,0,0,2,2,3,3,1,1,8,8,4,4,5,5,14,14,15,15,18,18,10,10,13,13,24,24,12,12,6,6,20,20,7,7,16,16,35,35,29,29,22,22,17,17,23,23,9,9,21,21,50,50,49,49,54,54,38,38,26,26,60,60,31,31,51,51,64,64,40,40,69,69,72,72,25,25,61,61,75,75,71,71,34,34,44,44,52,52,66,66,88,88,86,86,46,46,42,42,19,19,99,99,100,100,102,102,104,104,94,94,79,79,96,96,89,89,55,55,95,95,47,47,37,37,124,124,126,126,45,45,120,120,132,132,70,70,136,136,137,137,140,140,59,59,144,144,145,145,113,113,30,30,151,151],"right_children":[2,8,4,6,12,14,30,34,10,48,22,-1,28,24,16,18,36,44,20,100,32,50,42,46,26,76,60,-1,-1,40,152,64,-1,-1,84,38,-1,124,58,-1,70,-1,98,-1,86,130,96,122,-1,54,52,66,88,-1,56,118,-1,-1,-1,144,62,78,-1,-1,68,-1,90,-1,-1,72,136,82,74,-1,-1,80,-1,-1,-1,112,-1,-1,-1,-1,-1,-1,94,-1,92,116,-1,-1,-1,-1,110,120,114,-1,-1,102,104,-1,106,-1,108,-1,-1,-1,-1,-1,-1,-1,-1,150,-1,-1,-1,-1,-1,-1,132,-1,-1,-1,126,-1,128,-1,-1,-1,-1,-1,134,-1,-1,-1,138,140,-1,-1,142,-1,-1,-1,146,148,-1,-1,-1,-1,-1,154,-1,-1,-1],"split_conditions":[6.1E0,7.4E0,8.11E-1,3.8268343E-1,6.6E0,6.95E-1,2.18E1,5.8E0,3.3E0,3.01E1,7.44E-1,-0E0,1.3E1,2.04E1,1.19E1,7.69E-1,9.2E0,8.2E0,8.2E0,8.1E0,9.4E0,6.6E-1,9.1E0,1.79E1,6.34E-1,2.53E1,2.11E1,4.1992117E-2,-0E0,6.8E0,6.09E-1,7.7E-1,-0E0,-3.5589162E-2,4.1E0,7.01E-1,-0E0,1.78E1,2.18E1,-0E0,7.74E-1,-0E0,7.47E-1,-0E0,6.5E0,1.16E1,6.65E-1,7.56E-1,-0E0,1.81E1,1.53E1,3.5E0,4.6E0,-2.064878E-2,5.96E-1,3.25E1,-0E0,2.644319E-2,-0E0,6.9E0,2.59E1,6.5E0,-0E0,-0E0,6.2E0,-0E0,7.39E-1,-0E0,3.2274034E-2,1.52E1,8.9E0,7E0,7.15E-1,-8.658447E-3,-0E0,6.22E-1,-0E0,-0E0,1.7621266E-2,-9.238795E-1,-0E0,-0E0,-2.3449283E-2,-7.5450107E-3,-0E0,-0E0,6.98E-1,-0E0,2.1E1,1.44E1,-0E0,7.787394E-3,-0E0,-0E0,9.4E0,6.6E0,8.5E0,-0E0,1.3724484E-2,2.3E0,4E0,-0E0,7.84E-1,-0E0,8.08E-1,-0E0,7.964994E-3,-1.1130934E-2,-0E0,-2.5080921E-2,-0E0,-0E0,-4.314333E-3,6.5E0,-0E0,-1.0183053E-2,-0E0,-1.0478008E-2,-0E0,-0E0,1.82E1,-2.3066297E-2,-0E0,-0E0,7.4E0,-0E0,1.82E1,-0E0,3.754717E-3,-0E0,-1.3138584E-2,-0E0,5.79E-1,-0E0,-3.612783E-3,-0E0,1.49E1,7.77E-1,-0E0,-0E0,9.6E0,-7.539918E-3,-0E0,-0E0,9.3E0,6.38E-1,-0E0,-0E0,1.7487817E-3,-0E0,2.1514685E-3,2.89E1,-0E0,-5.9552747E-4,-0E0],"split_indices":[4,3,0,6,4,0,3,4,4,3,0,0,3,3,3,0,4,3,3,4,4,0,3,3,0,3,3,0,0,3,0,0,0,0,3,0,0,3,3,0,0,0,0,0,4,3,0,0,0,3,3,4,4,0,0,3,0,0,0,4,3,4,0,0,4,0,0,0,0,3,4,3,0,0,0,0,0,0,0,6,0,0,0,0,0,0,0,0,3,3,0,0,0,0,4,4,4,0,0,3,3,0,0,0,0,0,0,0,0,0,0,0,0,4,0,0,0,0,0,0,3,0,0,0,4,0,3,0,0,0,0,0,0,0,0,0,3,0,0,0,4,0,0,0,4,0,0,0,0,0,0,3,0,0,0],"split_type":[0,0,0,0,0,0,0,0,0,0,0,0,0,0,0,0,0,0,0,0,0,0,0,0,0,0,0,0,0,0,0,0,0,0,0,0,0,0,0,0,0,0,0,0,0,0,0,0,0,0,0,0,0,0,0,0,0,0,0,0,0,0,0,0,0,0,0,0,0,0,0,0,0,0,0,0,0,0,0,0,0,0,0,0,0,0,0,0,0,0,0,0,0,0,0,0,0,0,0,0,0,0,0,0,0,0,0,0,0,0,0,0,0,0,0,0,0,0,0,0,0,0,0,0,0,0,0,0,0,0,0,0,0,0,0,0,0,0,0,0,0,0,0,0,0,0,0,0,0,0,0,0,0,0,0],"sum_hessian":[2.8625E4,1.2409E4,1.6216E4,1.2135E4,4.081E3,9.121E3,3.014E3,2.045E3,1.0364E4,3.698E3,6.666E3,2.87E2,3.794E3,4.02E3,5.101E3,2.67E3,2.431E3,6.46E2,2.024E3,1.075E3,9.49E2,6.058E3,6.08E2,1.231E3,2.789E3,1.423E3,1.366E3,3.729E3,6.5E1,2.073E3,9.41E2,9.01E2,4.8E1,1.756E3,2.89E2,2.244E3,1.87E2,2.37E2,2.007E3,1.29E2,1.944E3,2.31E2,3.77E2,7.8E1,5.68E2,3.88E2,8.43E2,3.585E3,1.13E2,4.488E3,1.57E3,1.196E3,3.74E2,7.63E2,3.725E3,3.072E3,6.53E2,1.988E3,1.9E1,4.61E2,9.05E2,8.29E2,7.6E1,2.1E1,8.8E2,7.8E1,1.118E3,2.3E1,8.57E2,1.68E3,2.64E2,6.64E2,1.016E3,8.98E2,1.18E2,9.5E2,4.73E2,2.8E1,8.01E2,7.08E2,2.42E2,3E0,6.61E2,1.81E2,1.08E2,6.7E1,5.01E2,6.7E1,3.07E2,1.025E3,9.3E1,2.89E2,1.8E1,1E0,5E2,2.82E2,5.61E2,2.9E1,3.48E2,7.32E2,3.43E2,9.3E1,6.39E2,6.5E1,2.78E2,9.5E1,5.44E2,2.11E2,6.7E1,4.96E2,4E0,7.1E1,6.37E2,2.96E2,2.65E2,9.06E2,1.19E2,2.912E3,1.6E2,2.5E1,2.57E2,3.582E3,3E0,1.06E2,1.31E2,2E1,1.11E2,1.4E1,9.7E1,5E0,3.83E2,6E0,2.51E2,3E0,2.48E2,1.16E2,1.48E2,1.32E2,1.6E1,5E0,1.27E2,1.26E2,1E0,3E1,4.31E2,3.03E2,1.28E2,4E0,2.99E2,2.9E1,2.67E2,5.6E2,3.81E2,5.1E2,5E1],"tree_param":{"num_deleted":"0","num_feature":"8","num_nodes":"155","size_leaf_vector":"1"}},{"base_weights":[-0E0,-5.4160696E-1,4.144988E-1,7.097622E-1,-1.9579919E-1,1.1483599E0,5.0006264E-1,1.1667154E-1,4.319254E-2,-1.0576228E0,-4.3004784E-1,-7.2898E-1,-2.4912985E-1,7.770961E-1,-2.7650833E-1,-0E0,-3.5568592E-1,-1.1854198E-2,-4.5318347E-1,6.3082975E-1,2.4727638E-1,-6.023493E-1,-0E0,-0E0,1.1584562E0,7.116163E-1,1.7565747E-1,3.2493144E-1,-0E0,-1.1507365E0,-1.4500813E-1,-0E0,3.479421E-1,-2.2362677E-2,-0E0,-1.4313439E-1,-1.2956027E-2,3.5056078E-1,-0E0,-0E0,-1.8795703E-1,2.1635702E-2,-0E0,-0E0,-8.077681E-2,-2.3564015E-2,9.2899986E-2,1.7893592E-1,-0E0,-0E0,-9.1027E-2,-2.4399684E-1,-0E0,-6.0432255E-1,-0E0,1.1881219E0,-0E0,3.5487637E-1,-0E0,2.1073964E-1,-0E0,6.733999E-3,-0E0,-0E0,2.281278E-1,-3.455143E-2,-0E0,-0E0,3.9317966E-1,-0E0,-9.616888E-2,-1.1198644E-1,-0E0,-2.0203574E-1,-0E0,-0E0,-1.8233841E-2,-0E0,-1.463697E-1,-7.913203E-3,-0E0,1.2646552E-2,-0E0,2.4128255E-1,-0E0,-0E0,-1.0485719E-1,3.6349885E-2,-0E0,-4.9623996E-3,-0E0,-2.1972058E-3,-0E0,-3.918681E-2,-0E0,-0E0,1.0781891E-2,4.4715434E-2,-0E0,7.539025E-2,-0E0,-0E0,3.1613994E-3,-0E0,-3.5722763E-3,7.3905704E-3,-0E0,-1.5820652E-3,-0E0,-6.076498E-3,-0E0],"categories":[],"categories_nodes":[],"categories_segments":[],"categories_sizes":[],"default_left":[0,0,0,0,0,0,0,0,0,0,0,0,0,0,0,0,0,0,0,0,0,0,0,0,0,0,0,0,0,0,0,0,0,0,0,0,0,0,0,0,0,0,0,0,0,0,0,0,0,0,0,0,0,0,0,0,0,0,0,0,0,0,0,0,0,0,0,0,0,0,0,0,0,0,0,0,0,0,0,0,0,0,0,0,0,0,0,0,0,0,0,0,0,0,0,0,0,0,0,0,0,0,0,0,0,0,0,0,0,0,0],"id":9,"left_children":[1,9,3,5,13,7,19,31,-1,29,11,33,15,23,17,45,35,43,21,25,27,53,93,-1,55,41,59,37,-1,65,51,91,67,-1,-1,39,-1,57,-1,-1,73,-1,-1,97,69,49,47,63,-1,-1,85,79,-1,75,-1,87,-1,95,-1,61,-1,-1,-1,-1,83,-1,-1,-1,81,-1,71,77,-1,109,-1,-1,-1,-1,89,-1,-1,-1,-1,105,-1,-1,103,-1,-1,-1,-1,-1,-1,107,-1,-1,-1,99,-1,101,-1,-1,-1,-1,-1,-1,-1,-1,-1,-1,-1],"loss_changes":[6.4265557E3,5.6517554E2,2.9738174E3,8.4997363E2,3.5674075E2,8.711255E2,1.640863E2,3.5567104E1,0E0,4.4121338E1,4.6256958E2,2.6885864E1,1.9523917E2,1.0482121E2,1.8152869E2,7.6193304E0,2.0388794E1,8.34567E0,1.305476E2,8.632825E1,8.325102E1,4.1278687E0,9.658962E-1,0E0,3.604065E0,1.0286133E1,2.8218346E0,1.2237427E1,0E0,2.6296387E0,4.7373376E0,1.3088465E0,2.6172218E0,0E0,0E0,1.09757805E1,0E0,3.048462E0,0E0,0E0,2.44936E0,0E0,0E0,9.01761E-1,2.4553843E0,6.631828E0,1.0759632E1,2.7546616E0,0E0,0E0,1.400363E0,1.6189079E0,0E0,2.3963623E0,0E0,1.3607483E0,0E0,9.4155884E-1,0E0,2.7796364E0,0E0,0E0,0E0,0E0,1.5076389E0,0E0,0E0,0E0,1.532711E0,0E0,2.938487E0,1.7222509E0,0E0,1.9634628E-1,0E0,0E0,0E0,0E0,1.3328485E0,0E0,0E0,0E0,0E0,7.549E-1,0E0,0E0,8.3414745E-1,0E0,0E0,0E0,0E0,0E0,0E0,5.469865E-1,0E0,0E0,0E0,1.206888E0,0E0,1.8558152E0,0E0,0E0,0E0,0E0,0E0,0E0,0E0,0E0,0E0,0E0,0E0],"parents":[2147483647,0,0,2,2,3,3,5,5,1,1,10,10,4,4,12,12,14,14,6,6,18,18,13,13,19,19,20,20,9,9,7,7,11,11,16,16,27,27,35,35,25,25,17,17,15,15,46,46,45,45,30,30,21,21,24,24,37,37,26,26,59,59,47,47,29,29,32,32,44,44,70,70,40,40,53,53,71,71,51,51,68,68,64,64,50,50,55,55,78,78,31,31,22,22,57,57,43,43,97,97,99,99,86,86,83,83,93,93,73,73],"right_children":[2,10,4,6,14,8,20,32,-1,30,12,34,16,24,18,46,36,44,22,26,28,54,94,-1,56,42,60,38,-1,66,52,92,68,-1,-1,40,-1,58,-1,-1,74,-1,-1,98,70,50,48,64,-1,-1,86,80,-1,76,-1,88,-1,96,-1,62,-1,-1,-1,-1,84,-1,-1,-1,82,-1,72,78,-1,110,-1,-1,-1,-1,90,-1,-1,-1,-1,106,-1,-1,104,-1,-1,-1,-1,-1,-1,108,-1,-1,-1,100,-1,102,-1,-1,-1,-1,-1,-1,-1,-1,-1,-1,-1],"split_conditions":[6.1E0,7.4E0,5E-1,5.6E0,3.9E0,7.6E0,1.94E1,2.1E0,4.319254E-2,5.8E0,3.3E0,3.01E1,4E-1,7.1E0,9E-1,5.3E0,8E-1,7.4E0,2.2E1,1.2246469E-16,9.3E0,9.6E0,8.5E0,-0E0,1.3E0,9.4E0,4E-1,3.8268343E-1,-0E0,4.8E0,4.1E0,6.9E0,6.5E0,-2.2362677E-2,-0E0,1.3E1,-1.2956027E-2,3.08E1,-0E0,-0E0,5.9E0,2.1635702E-2,-0E0,1.92E1,6.9E0,1.09E1,2.09E1,1.11E1,-0E0,-0E0,3.5E0,1.6E0,-0E0,4.2E0,-0E0,3.7E0,-0E0,6.2E0,-0E0,9.4E0,-0E0,6.733999E-3,-0E0,-0E0,9.238795E-1,-3.455143E-2,-0E0,-0E0,5.3E0,-0E0,2.45E1,6E-1,-0E0,3.62E1,-0E0,-0E0,-1.8233841E-2,-0E0,2.19E1,-7.913203E-3,-0E0,1.2646552E-2,-0E0,2.06E1,-0E0,-0E0,-9.238795E-1,3.6349885E-2,-0E0,-4.9623996E-3,-0E0,-2.1972058E-3,-0E0,2.8E1,-0E0,-0E0,1.0781891E-2,7.0710677E-1,-0E0,4.4E0,-0E0,-0E0,3.1613994E-3,-0E0,-3.5722763E-3,7.3905704E-3,-0E0,-1.5820652E-3,-0E0,-6.076498E-3,-0E0],"split_indices":[4,3,5,3,3,4,3,3,0,4,4,3,5,4,5,4,5,4,3,6,4,4,4,0,5,4,5,6,0,5,3,4,4,0,0,3,0,3,0,0,4,0,0,3,3,3,3,3,0,0,4,5,0,3,0,3,0,4,0,4,0,0,0,0,6,0,0,0,3,0,3,5,0,3,0,0,0,0,3,0,0,0,0,3,0,0,6,0,0,0,0,0,0,3,0,0,0,6,0,3,0,0,0,0,0,0,0,0,0,0,0],"split_type":[0,0,0,0,0,0,0,0,0,0,0,0,0,0,0,0,0,0,0,0,0,0,0,0,0,0,0,0,0,0,0,0,0,0,0,0,0,0,0,0,0,0,0,0,0,0,0,0,0,0,0,0,0,0,0,0,0,0,0,0,0,0,0,0,0,0,0,0,0,0,0,0,0,0,0,0,0,0,0,0,0,0,0,0,0,0,0,0,0,0,0,0,0,0,0,0,0,0,0,0,0,0,0,0,0,0,0,0,0,0,0],"sum_hessian":[2.8625E4,1.2409E4,1.6216E4,1.1039E4,5.177E3,3.415E3,7.624E3,8.28E2,2.587E3,2.045E3,1.0364E4,3.698E3,6.666E3,3.01E2,4.876E3,1.853E3,4.813E3,2.179E3,2.697E3,4.763E3,2.861E3,1.886E3,8.11E2,8.8E1,2.13E2,3.858E3,9.05E2,2.445E3,4.16E2,1.756E3,2.89E2,4.42E2,3.86E2,3.585E3,1.13E2,1.617E3,3.196E3,2.2E3,2.45E2,3.69E2,1.248E3,3.776E3,8.2E1,8.54E2,1.325E3,1.038E3,8.15E2,5.55E2,2.6E2,1.69E2,8.69E2,1.81E2,1.08E2,1.885E3,1E0,2.05E2,8E0,2.171E3,2.9E1,6.92E2,2.13E2,6.65E2,2.7E1,1.61E2,3.94E2,1.755E3,1E0,6.7E1,3.19E2,1.25E2,1.2E3,1.119E3,8.1E1,1.14E3,1.08E2,1.5E1,1.87E3,3.84E2,7.35E2,1.78E2,3E0,2.86E2,3.3E1,3.78E2,1.6E1,8.7E1,7.82E2,1.98E2,7E0,6.24E2,1.11E2,2.43E2,1.99E2,6.28E2,1.83E2,4.7E1,2.124E3,4.5E2,4.04E2,3.7E2,8E1,1.4E1,3.56E2,1.17E2,6.65E2,3.75E2,3E0,5.43E2,8.5E1,1.139E3,1E0],"tree_param":{"num_deleted":"0","num_feature":"8","num_nodes":"111","size_leaf_vector":"1"}},{"base_weights":[-0E0,-2.0339254E-1,1.785359E0,1.4609693E-1,-5.6490785E-1,3.8327882E-1,-2.2489478E-1,-3.8820204E-1,4.4953963E-1,-3.369888E-1,-7.3754466E-1,-8.098624E-1,1.6701719E-1,1.1274526E0,2.9651007E-1,5.021193E-1,8.8318765E-2,1.1039456E0,3.316349E-1,1.1969386E0,2.0937407E0,-7.516815E-1,-2.172534E-1,-4.1763905E-1,2.9214771E-2,-3.325705E-3,-4.1380703E-1,-0E0,-2.4729196E-2,-2.8919274E-2,-5.735194E-1,-6.8350524E-1,-0E0,-0E0,2.3874031E-2,-0E0,3.5744246E-2,-0E0,3.5635933E-2,-5.7359457E-1,-2.1290337E-1,-0E0,-1.7926969E-2,1.6125718E-1,-4.2290397E-2,-0E0,-8.667363E-3,-2.1411683E-2,-0E0,1.228563E0,-0E0,3.7765184E-1,-0E0,2.0327692E-1,-0E0,4.0899876E-1,-0E0,-0E0,2.4619189E-1,3.5045272E-1,-0E0,-2.2038743E-1,3.6752567E-1,-0E0,-9.445587E-3,6.32959E-2,-0E0,-0E0,1.1472163E-1,1.238356E-2,-0E0,-0E0,1.0880314E-2,-0E0,2.0950271E-1,-0E0,1.2306885E0,2.330233E-1,-0E0,-4.2366183E-1,-0E0,-0E0,-5.8211435E-2,-0E0,-1.23229876E-1,2.5135297E-1,-0E0,3.703959E-2,-0E0,-0E0,-4.6352723E-1,-0E0,-6.256009E-2,7.3408494E-3,-0E0,-0E0,-7.386006E-2,2.5654024E-1,-0E0,-0E0,-1.2970518E-1,2.7239013E-1,-0E0,-0E0,9.67899E-3,-0E0,-1.3936911E-2,-3.9094854E-3,-0E0,1.2299537E-2,-0E0,-0E0,-2.2569688E-3],"categories":[],"categories_nodes":[],"categories_segments":[],"categories_sizes":[],"default_left":[0,0,0,0,0,0,0,0,0,0,0,0,0,0,0,0,0,0,0,0,0,0,0,0,0,0,0,0,0,0,0,0,0,0,0,0,0,0,0,0,0,0,0,0,0,0,0,0,0,0,0,0,0,0,0,0,0,0,0,0,0,0,0,0,0,0,0,0,0,0,0,0,0,0,0,0,0,0,0,0,0,0,0,0,0,0,0,0,0,0,0,0,0,0,0,0,0,0,0,0,0,0,0,0,0,0,0,0,0,0,0,0,0],"id":10,"left_children":[1,3,19,5,9,13,7,21,33,25,11,29,73,35,15,17,43,37,51,49,65,27,23,79,67,81,39,-1,-1,-1,31,47,-1,-1,-1,-1,-1,-1,-1,41,45,-1,-1,53,91,-1,-1,-1,-1,75,-1,55,-1,57,-1,109,-1,61,59,71,-1,63,69,-1,-1,-1,-1,-1,77,-1,-1,-1,-1,-1,85,-1,87,93,-1,89,-1,-1,83,-1,99,97,-1,-1,-1,-1,105,-1,95,-1,-1,-1,111,101,-1,-1,107,103,-1,-1,-1,-1,-1,-1,-1,-1,-1,-1,-1],"loss_changes":[1.0389858E4,3.2891768E3,1.9937207E2,1.153492E3,3.9491968E2,3.771306E2,5.313039E2,1.5440887E2,7.88513E1,1.0584534E2,5.235083E2,8.612988E1,4.623701E0,7.1403076E1,2.5476587E2,2.0974493E2,4.892318E1,7.056091E1,3.0760254E1,3.1572021E1,1.11796875E1,8.729303E1,1.8410672E2,3.6100159E0,9.3959875E0,3.228241E0,6.363214E1,0E0,0E0,0E0,1.8993579E2,3.6078857E1,0E0,0E0,0E0,0E0,0E0,0E0,0E0,4.906836E1,4.4941437E1,0E0,0E0,2.6673912E1,9.189986E-1,0E0,0E0,0E0,0E0,4.1518555E0,0E0,2.3589783E1,0E0,1.5349533E1,0E0,7.672119E-2,0E0,4.8696625E1,4.9596962E1,4.6468964E0,0E0,1.2639653E1,6.8904E0,0E0,0E0,0E0,0E0,0E0,3.7322369E0,0E0,0E0,0E0,0E0,0E0,3.0488625E0,0E0,1.4390869E0,7.854929E-1,0E0,9.8968506E-1,0E0,0E0,1.05760355E1,0E0,3.4643173E-1,6.0874176E-1,0E0,0E0,0E0,0E0,1.6723633E-1,0E0,7.846217E-1,0E0,0E0,0E0,6.213236E-2,3.1430435E-1,0E0,0E0,1.16788864E-1,3.5461426E-1,0E0,0E0,0E0,0E0,0E0,0E0,0E0,0E0,0E0,0E0,0E0],"parents":[2147483647,0,0,1,1,3,3,6,6,4,4,10,10,5,5,14,14,15,15,2,2,7,7,22,22,9,9,21,21,11,11,30,30,8,8,13,13,17,17,26,26,39,39,16,16,40,40,31,31,19,19,18,18,43,43,51,51,53,53,58,58,57,57,61,61,20,20,24,24,62,62,59,59,12,12,49,49,68,68,23,23,25,25,82,82,74,74,76,76,79,79,44,44,77,77,92,92,85,85,84,84,97,97,101,101,90,90,100,100,55,55,96,96],"right_children":[2,4,20,6,10,14,8,22,34,26,12,30,74,36,16,18,44,38,52,50,66,28,24,80,68,82,40,-1,-1,-1,32,48,-1,-1,-1,-1,-1,-1,-1,42,46,-1,-1,54,92,-1,-1,-1,-1,76,-1,56,-1,58,-1,110,-1,62,60,72,-1,64,70,-1,-1,-1,-1,-1,78,-1,-1,-1,-1,-1,86,-1,88,94,-1,90,-1,-1,84,-1,100,98,-1,-1,-1,-1,106,-1,96,-1,-1,-1,112,102,-1,-1,108,104,-1,-1,-1,-1,-1,-1,-1,-1,-1,-1,-1],"split_conditions":[8.9E-2,5E-1,9.1E-2,8.5E-2,8.3E-2,5.6E0,8.8E-2,4.1E0,5.3E0,7E-1,8.8E-2,1.78E1,2.3E0,3.4E-2,3.3E-2,1.59E1,1.2246469E-16,7.6E0,2.41E1,1.8E0,1.7E0,8.6E-2,8.7E-2,3.12E1,8.3E0,2.4E-2,2.19E1,-0E0,-2.4729196E-2,-2.8919274E-2,8.7E-2,3.01E1,-0E0,-0E0,2.3874031E-2,-0E0,3.5744246E-2,-0E0,3.5635933E-2,6.9E0,3.2E-2,-0E0,-1.7926969E-2,2.51E1,5.8E-2,-0E0,-8.667363E-3,-2.1411683E-2,-0E0,-5.3E0,-0E0,3.8268343E-1,-0E0,9.3E0,-0E0,2.4E1,-0E0,7.6E-2,7.8E-2,3.5E-2,-0E0,3.7E-2,9.1E0,-0E0,-9.445587E-3,6.32959E-2,-0E0,-0E0,1.25E1,1.238356E-2,-0E0,-0E0,1.0880314E-2,-0E0,1.7E0,-0E0,2.59E1,7.0710677E-1,-0E0,-9.238795E-1,-0E0,-0E0,6.9E0,-0E0,2.7E-2,3.08E1,-0E0,3.703959E-2,-0E0,-0E0,4.2E0,-0E0,7.7E0,7.3408494E-3,-0E0,-0E0,5.9E-2,9.238795E-1,-0E0,-0E0,3.62E1,6.4E0,-0E0,-0E0,9.67899E-3,-0E0,-1.3936911E-2,-3.9094854E-3,-0E0,1.2299537E-2,-0E0,-0E0,-2.2569688E-3],"split_indices":[2,5,2,2,2,3,2,3,3,5,2,3,3,2,2,3,6,3,3,5,5,2,2,3,3,2,3,0,0,0,2,3,0,0,0,0,0,0,0,3,2,0,0,3,2,0,0,0,0,3,0,6,0,3,0,3,0,2,2,2,0,2,3,0,0,0,0,0,3,0,0,0,0,0,5,0,3,6,0,6,0,0,3,0,2,3,0,0,0,0,3,0,3,0,0,0,2,6,0,0,3,3,0,0,0,0,0,0,0,0,0,0,0],"split_type":[0,0,0,0,0,0,0,0,0,0,0,0,0,0,0,0,0,0,0,0,0,0,0,0,0,0,0,0,0,0,0,0,0,0,0,0,0,0,0,0,0,0,0,0,0,0,0,0,0,0,0,0,0,0,0,0,0,0,0,0,0,0,0,0,0,0,0,0,0,0,0,0,0,0,0,0,0,0,0,0,0,0,0,0,0,0,0,0,0,0,0,0,0,0,0,0,0,0,0,0,0,0,0,0,0,0,0,0,0,0,0,0,0],"sum_hessian":[2.8625E4,2.57E4,2.925E3,1.2927E4,1.2773E4,8.05E3,4.877E3,4.046E3,8.31E2,5.756E3,7.017E3,6.6E3,4.17E2,7.19E2,7.331E3,3.446E3,3.885E3,6.3E2,2.816E3,1.119E3,1.806E3,1.106E3,2.94E3,1.845E3,1.095E3,1.321E3,4.435E3,5.8E1,1.048E3,3.737E3,2.863E3,2.422E3,4.41E2,4.42E2,3.89E2,2.5E1,6.94E2,3.6E1,5.94E2,2.192E3,2.243E3,3.5E1,2.157E3,2.984E3,9.01E2,4.87E2,1.756E3,2.292E3,1.3E2,1.083E3,3.6E1,2.387E3,4.29E2,2.523E3,4.61E2,2.176E3,2.11E2,5.5E2,1.973E3,1.377E3,5.96E2,2.98E2,2.52E2,2.5E1,2.73E2,1.781E3,2.5E1,3.11E2,7.84E2,2.4E2,1.2E1,5.6E1,1.321E3,4.7E1,3.7E2,1E0,1.082E3,2.58E2,5.26E2,1.813E3,3.2E1,3.65E2,9.56E2,4.7E1,9.09E2,3.05E2,6.5E1,1.076E3,6E0,2.94E2,1.519E3,2.55E2,6.46E2,2.47E2,1.1E1,3.9E1,6.07E2,3.02E2,3E0,6.8E1,8.41E2,2.72E2,3E1,7.5E1,1.97E2,6E0,1.513E3,8.4E2,1E0,2.166E3,1E1,1.1E1,5.96E2],"tree_param":{"num_deleted":"0","num_feature":"8","num_nodes":"113","size_leaf_vector":"1"}},{"base_weights":[-0E0,-2.4631321E-1,9.1598463E-1,6.6863686E-1,1.5510216E0,-3.053438E-1,7.20277E-2,-2.1342579E-1,-4.6117777E-1,-1.1627621E-2,-8.562123E-2,2.7298564E-2,-0E0,-1.3062166E-1,8.877035E-3,8.504112E-2,-2.711919E-1,2.3280356E-2,-1.7427798E-1,-1.0019667E-2,-3.8627993E-2,-0E0,1.9812138E-1,3.4307078E-2,6.329242E-2,-3.0534923E-1,-1.704784E-2,4.0220577E-2,5.964239E-1,2.7024367E-1,7.377678E-1,5.257219E-1,-8.587675E-2,-1.0250985E-1,3.653174E-4,-0E0,-2.8924248E-1,-0E0,-3.6361507E-1,-9.239155E-3,-0E0,6.1395383E-3,-0E0,-2.8173336E-1,-0E0,2.8433013E-1,2.4922503E-2,-0E0,-1.2515602E-1,-0E0,1.657137E-2,-0E0,-1.1348624E-2,-4.2594727E-2,-0E0,-0E0,3.8914047E-2,-1.315468E-1,-0E0,-0E0,-4.302579E-3,9.003663E-3,-0E0,-0E0,-1.4285378E-3,1.3387974E-3,-0E0,-0E0,-8.541018E-3,1.3087152E-2,-0E0,-0E0,5.87867E-4],"categories":[],"categories_nodes":[],"categories_segments":[],"categories_sizes":[],"default_left":[0,0,0,0,0,0,0,0,0,0,0,0,0,0,0,0,0,0,0,0,0,0,0,0,0,0,0,0,0,0,0,0,0,0,0,0,0,0,0,0,0,0,0,0,0,0,0,0,0,0,0,0,0,0,0,0,0,0,0,0,0,0,0,0,0,0,0,0,0,0,0,0,0],"id":11,"left_children":[1,5,3,27,23,7,11,9,25,-1,13,-1,15,17,-1,21,43,55,19,-1,53,33,41,-1,-1,39,-1,-1,29,31,45,49,47,35,69,-1,37,-1,51,-1,-1,-1,-1,67,-1,61,-1,-1,57,-1,-1,-1,-1,63,-1,-1,65,59,-1,-1,-1,-1,-1,-1,-1,-1,-1,-1,-1,71,-1,-1,-1],"loss_changes":[6.462993E3,4.472041E2,7.3075684E2,2.314917E1,3.3770508E1,2.0877869E2,1.5694911E2,2.3176935E2,2.5150513E1,0E0,1.133917E2,0E0,6.2286674E1,6.2148834E1,0E0,3.4526142E1,2.897171E0,7.9662055E-1,9.186923E1,0E0,1.0499859E0,5.6955585E0,3.1655617E0,0E0,0E0,3.6167297E0,0E0,0E0,9.1989136E1,1.7877255E2,2.345337E0,1.7201233E0,2.1351585E0,2.7267033E1,6.9288515E-2,0E0,6.966694E0,0E0,1.4271011E0,0E0,0E0,0E0,0E0,2.7560043E-1,0E0,3.685875E-1,0E0,0E0,5.585213E-1,0E0,0E0,0E0,0E0,3.2714605E-1,0E0,0E0,3.1551135E-1,6.0779E-1,0E0,0E0,0E0,0E0,0E0,0E0,0E0,0E0,0E0,0E0,0E0,7.9236895E-2,0E0,0E0,0E0],"parents":[2147483647,0,0,2,2,1,1,5,5,7,7,6,6,10,10,12,12,13,13,18,18,15,15,4,4,8,8,3,3,28,28,29,29,21,21,33,33,36,36,25,25,22,22,16,16,30,30,32,32,31,31,38,38,20,20,17,17,48,48,57,57,45,45,53,53,56,56,43,43,34,34,69,69],"right_children":[2,6,4,28,24,8,12,10,26,-1,14,-1,16,18,-1,22,44,56,20,-1,54,34,42,-1,-1,40,-1,-1,30,32,46,50,48,36,70,-1,38,-1,52,-1,-1,-1,-1,68,-1,62,-1,-1,58,-1,-1,-1,-1,64,-1,-1,66,60,-1,-1,-1,-1,-1,-1,-1,-1,-1,-1,-1,72,-1,-1,-1],"split_conditions":[2.3E-2,1E-3,5.5E-2,7.74E-1,7E-2,3.8268343E-1,7.27E-1,6.22E-1,-3.8268343E-1,-1.1627621E-2,7.61E-1,2.7298564E-2,3.8268343E-1,-9.238795E-1,8.877035E-3,7.84E-1,8.24E-1,6.47E-1,0E0,-1.0019667E-2,7.57E-1,0E0,8.39E-1,3.4307078E-2,6.329242E-2,8.13E-1,-1.704784E-2,4.0220577E-2,0E0,6.123234E-17,8.09E-1,2.5E-2,-7.0710677E-1,-9.238795E-1,1.2246469E-16,-0E0,-3.8268343E-1,-0E0,2E-3,-9.239155E-3,-0E0,6.1395383E-3,-0E0,7.35E-1,-0E0,8.08E-1,2.4922503E-2,-0E0,8.68E-1,-0E0,1.657137E-2,-0E0,-1.1348624E-2,6.44E-1,-0E0,-0E0,7.53E-1,2.4E-2,-0E0,-0E0,-4.302579E-3,9.003663E-3,-0E0,-0E0,-1.4285378E-3,1.3387974E-3,-0E0,-0E0,-8.541018E-3,2E-3,-0E0,-0E0,5.87867E-4],"split_indices":[1,1,1,0,1,6,0,0,7,0,0,0,6,6,0,0,0,0,6,0,0,6,0,0,0,0,0,0,6,7,0,1,6,6,6,0,7,0,1,0,0,0,0,0,0,0,0,0,0,0,0,0,0,0,0,0,0,1,0,0,0,0,0,0,0,0,0,0,0,1,0,0,0],"split_type":[0,0,0,0,0,0,0,0,0,0,0,0,0,0,0,0,0,0,0,0,0,0,0,0,0,0,0,0,0,0,0,0,0,0,0,0,0,0,0,0,0,0,0,0,0,0,0,0,0,0,0,0,0,0,0,0,0,0,0,0,0,0,0,0,0,0,0,0,0,0,0,0,0],"sum_hessian":[2.8625E4,2.2554E4,6.071E3,4.484E3,1.587E3,1.9291E4,3.263E3,1.2539E4,6.752E3,4.975E3,7.564E3,2.09E2,3.054E3,7.001E3,5.63E2,2.449E3,6.05E2,1.041E3,5.96E3,2.398E3,3.562E3,1.119E3,1.33E3,1.023E3,5.64E2,3.132E3,3.62E3,2.99E2,4.185E3,1.48E3,2.705E3,1.025E3,4.55E2,5.41E2,5.78E2,1.48E2,3.93E2,9.2E1,3.01E2,3.117E3,1.5E1,1.322E3,8E0,5.97E2,8E0,6.44E2,2.061E3,1.05E2,3.5E2,9.1E1,9.34E2,1.3E1,2.88E2,3.508E3,5.4E1,1.43E2,8.98E2,3.49E2,1E0,2.6E1,3.23E2,5.82E2,6.2E1,5.57E2,2.951E3,8.41E2,5.7E1,9E0,5.88E2,4.04E2,1.74E2,1.8E1,3.86E2],"tree_param":{"num_deleted":"0","num_feature":"8","num_nodes":"73","size_leaf_vector":"1"}},{"base_weights":[-0E0,-5.065589E-1,3.8871977E-1,1.1932105E-1,1.1650633E0,-1.0848738E0,-4.0911028E-1,-0E0,1.2522876E0,-6.897043E-1,-2.4462345E-1,2.2212464E-2,4.2583805E-1,-7.034291E-1,1.0832406E-1,-0E0,8.31145E-1,-0E0,5.2499354E-1,-5.3471375E-1,7.472787E-2,1.07903E0,6.855719E-2,-2.993003E-1,-0E0,-6.739411E-2,1.8609905E-1,2.9228184E-2,4.0629256E-1,-3.393444E-2,3.6684525E-1,3.812188E-2,-0E0,-1.10313416E-1,3.5127792E-1,-0E0,5.5793923E-1,3.63788E-2,-0E0,-0E0,-5.906519E-1,2.0209482E-1,7.3423445E-1,-0E0,7.939081E-1,-0E0,-7.4161637E-1,1.3789379E-2,-0E0,-3.5340626E-2,-9.241251E-2,-2.1152336E-2,-0E0,-5.0706617E-3,-0E0,-1.2834927E-2,-0E0,7.695679E-1,-0E0,7.9128724E-1,-0E0,-0E0,-1.9749273E-1,-0E0,3.3105753E-2,-3.2102835E-1,-0E0,4.4321844E-1,-0E0,-1.959646E-1,-0E0,-2.9049882E-1,-0E0,-0E0,1.2796297E-2,-7.249252E-3,-0E0,-2.8940712E-3,-0E0,-2.3871848E-1,-0E0,-1.9662308E-2,-0E0,-8.133028E-3,-0E0,-0E0,1.3631325E-2,-0E0,-7.4714184E-1,-2.2523614E-2,-0E0,-0E0,7.9632175E-1,2.647632E-2,-0E0,6.2136814E-2,-0E0,-0E0,6.892431E-1,2.2123095E-1,-2.0603164E-1,-2.947198E-1,-0E0,-0E0,3.8460255E-1,-3.3802778E-1,-0E0,-0E0,4.7777677E-1,-3.5667464E-1,-0E0,-0E0,-1.2260043E-2,1.5475841E-2,-0E0,-0E0,2.1084795E-2,-9.168502E-3,-0E0,-0E0,6.655917E-2,-5.54589E-2,-0E0,-0E0,2.8733825E-3,-9.634875E-3,-0E0,-0E0,2.407367E-2,-0E0,-1.8325725E-3,-8.954219E-3,-0E0,-3.6724962E-2,-0E0,-0E0,-1.4274655E-3],"categories":[],"categories_nodes":[],"categories_segments":[],"categories_sizes":[],"default_left":[0,0,0,0,0,0,0,0,0,0,0,0,0,0,0,0,0,0,0,0,0,0,0,0,0,0,0,0,0,0,0,0,0,0,0,0,0,0,0,0,0,0,0,0,0,0,0,0,0,0,0,0,0,0,0,0,0,0,0,0,0,0,0,0,0,0,0,0,0,0,0,0,0,0,0,0,0,0,0,0,0,0,0,0,0,0,0,0,0,0,0,0,0,0,0,0,0,0,0,0,0,0,0,0,0,0,0,0,0,0,0,0,0,0,0,0,0,0,0,0,0,0,0,0,0,0,0,0,0,0,0,0,0,0,0,0,0],"id":12,"left_children":[1,5,3,11,7,49,9,-1,31,51,23,13,15,45,17,95,21,19,41,39,25,63,35,65,33,53,27,29,67,77,47,-1,-1,69,73,55,37,-1,-1,-1,81,43,57,61,127,-1,87,-1,-1,-1,75,-1,-1,-1,-1,-1,-1,59,-1,91,-1,119,79,-1,-1,125,131,85,-1,71,-1,117,-1,-1,-1,-1,-1,-1,-1,83,-1,-1,-1,-1,-1,-1,-1,-1,89,-1,-1,-1,93,-1,-1,97,99,121,115,103,101,105,-1,-1,107,109,-1,-1,113,111,-1,-1,-1,-1,-1,-1,-1,-1,-1,-1,123,129,-1,-1,-1,-1,-1,-1,-1,-1,-1,133,-1,135,-1,-1,-1],"loss_changes":[5.634868E3,5.4953516E2,3.2631423E3,3.1641882E2,4.106172E2,2.4549927E1,4.0347754E2,0E0,7.161719E1,2.4341309E1,1.23644104E2,5.3199713E2,4.4183014E2,3.321576E1,4.2266174E2,1.3822322E0,1.3866205E2,2.9805862E2,3.4521973E1,4.1449707E1,1.0302234E2,1.2277832E1,5.7752525E1,1.1487854E1,6.0846382E1,2.2123623E1,8.1581535E1,8.409916E1,1.1261826E1,8.314855E0,2.5753052E1,0E0,0E0,9.332582E0,8.832256E0,2.1049517E1,1.3580278E2,0E0,0E0,0E0,4.508301E0,1.767005E2,2.10177E1,1.4119225E1,1.45401E-1,0E0,1.9928284E0,0E0,0E0,0E0,8.628735E0,0E0,0E0,0E0,0E0,0E0,0E0,2.0307129E1,0E0,1.4544067E0,0E0,6.4236784E-1,5.1992035E0,0E0,0E0,3.6071777E-1,3.8325097E-2,3.5954437E0,0E0,1.19121475E1,0E0,9.67474E-1,0E0,0E0,0E0,0E0,0E0,0E0,0E0,4.347191E0,0E0,0E0,0E0,0E0,0E0,0E0,0E0,0E0,1.7902527E0,0E0,0E0,0E0,1.4402466E0,0E0,0E0,8.080246E1,4.298235E1,4.5827776E-1,1.2954102E0,1.2561324E1,2.3349842E1,1.1980415E1,0E0,0E0,9.981863E0,6.916115E0,0E0,0E0,1.9507675E0,4.2951736E0,0E0,0E0,0E0,0E0,0E0,0E0,0E0,0E0,0E0,0E0,4.309547E-1,9.397966E-2,0E0,0E0,0E0,0E0,0E0,0E0,0E0,0E0,0E0,4.377741E-1,0E0,3.095311E-1,0E0,0E0,0E0],"parents":[2147483647,0,0,2,2,1,1,4,4,6,6,3,3,11,11,12,12,14,14,17,17,16,16,10,10,20,20,26,26,27,27,8,8,24,24,22,22,36,36,19,19,18,18,41,41,13,13,30,30,5,5,9,9,25,25,35,35,42,42,57,57,43,43,21,21,23,23,28,28,33,33,69,69,34,34,50,50,29,29,62,62,40,40,79,79,67,67,46,46,88,88,59,59,92,92,15,15,95,95,96,96,100,100,99,99,101,101,104,104,105,105,109,109,108,108,98,98,71,71,61,61,97,97,120,120,65,65,44,44,121,121,66,66,131,131,133,133],"right_children":[2,6,4,12,8,50,10,-1,32,52,24,14,16,46,18,96,22,20,42,40,26,64,36,66,34,54,28,30,68,78,48,-1,-1,70,74,56,38,-1,-1,-1,82,44,58,62,128,-1,88,-1,-1,-1,76,-1,-1,-1,-1,-1,-1,60,-1,92,-1,120,80,-1,-1,126,132,86,-1,72,-1,118,-1,-1,-1,-1,-1,-1,-1,84,-1,-1,-1,-1,-1,-1,-1,-1,90,-1,-1,-1,94,-1,-1,98,100,122,116,104,102,106,-1,-1,108,110,-1,-1,114,112,-1,-1,-1,-1,-1,-1,-1,-1,-1,-1,124,130,-1,-1,-1,-1,-1,-1,-1,-1,-1,134,-1,136,-1,-1,-1],"split_conditions":[6.1E0,6.3E0,8.11E-1,7.69E-1,6.6E0,5.8E0,3.3E0,-0E0,1.3E1,3.01E1,7.39E-1,1.21E1,8.4E0,7E0,7.11E-1,4E0,8.8E0,1.77E1,1.53E1,6.3E0,6.29E-1,8.5E0,7.88E-1,5.8E0,9.1E0,2.45E1,2.13E1,6.92E-1,2.58E1,2.05E1,9.2E0,3.812188E-2,-0E0,7.88E-1,7.47E-1,1.03E1,1.16E1,3.63788E-2,-0E0,-0E0,7.05E-1,7.5E-1,7.53E-1,7.9E0,6.2E0,-0E0,6.85E-1,1.3789379E-2,-0E0,-3.5340626E-2,4.1E0,-2.1152336E-2,-0E0,-5.0706617E-3,-0E0,-1.2834927E-2,-0E0,2.16E1,-0E0,6.2E0,-0E0,7.31E-1,1.51E1,-0E0,3.3105753E-2,3.62E1,2.67E1,6.5E0,-0E0,1E0,-0E0,6E0,-0E0,-0E0,1.2796297E-2,-7.249252E-3,-0E0,-2.8940712E-3,-0E0,7.49E-1,-0E0,-1.9662308E-2,-0E0,-8.133028E-3,-0E0,-0E0,1.3631325E-2,-0E0,9.4E0,-2.2523614E-2,-0E0,-0E0,9.1E0,2.647632E-2,-0E0,7.6E0,6.7E0,7.3E0,9E-1,7.84E-1,8E0,8.09E-1,-0E0,-0E0,4.8E0,9.6E0,-0E0,-0E0,8.1E0,4.8E0,-0E0,-0E0,-1.2260043E-2,1.5475841E-2,-0E0,-0E0,2.1084795E-2,-9.168502E-3,-0E0,-0E0,-9.238795E-1,7.81E-1,-0E0,-0E0,2.8733825E-3,-9.634875E-3,-0E0,-0E0,2.407367E-2,-0E0,-1.8325725E-3,6.84E-1,-0E0,4.89E-1,-0E0,-0E0,-1.4274655E-3],"split_indices":[4,3,0,0,4,4,4,0,3,3,0,3,3,3,0,3,4,3,3,4,0,3,0,4,3,3,3,0,3,3,4,0,0,0,0,3,3,0,0,0,0,0,0,4,4,0,0,0,0,0,3,0,0,0,0,0,0,3,0,4,0,0,3,0,0,3,3,4,0,7,0,4,0,0,0,0,0,0,0,0,0,0,0,0,0,0,0,0,4,0,0,0,4,0,0,4,4,4,3,0,3,0,0,0,3,4,0,0,3,3,0,0,0,0,0,0,0,0,0,0,7,0,0,0,0,0,0,0,0,0,0,0,0,0,0,0,0],"split_type":[0,0,0,0,0,0,0,0,0,0,0,0,0,0,0,0,0,0,0,0,0,0,0,0,0,0,0,0,0,0,0,0,0,0,0,0,0,0,0,0,0,0,0,0,0,0,0,0,0,0,0,0,0,0,0,0,0,0,0,0,0,0,0,0,0,0,0,0,0,0,0,0,0,0,0,0,0,0,0,0,0,0,0,0,0,0,0,0,0,0,0,0,0,0,0,0,0,0,0,0,0,0,0,0,0,0,0,0,0,0,0,0,0,0,0,0,0,0,0,0,0,0,0,0,0,0,0,0,0,0,0,0,0,0,0,0,0],"sum_hessian":[2.8625E4,1.2409E4,1.6216E4,1.2135E4,4.081E3,1.64E3,1.0769E4,2.87E2,3.794E3,3.754E3,7.015E3,9.464E3,2.671E3,8.8E2,8.584E3,1.331E3,1.34E3,6.686E3,1.898E3,9.29E2,5.757E3,9.12E2,4.28E2,6.066E3,9.49E2,2.135E3,3.622E3,2.381E3,1.241E3,1.757E3,6.24E2,3.729E3,6.5E1,5.07E2,4.42E2,2.37E2,1.91E2,1.32E2,5.9E1,4.9E1,8.8E2,9.35E2,9.63E2,5.95E2,3.4E2,2.8E1,8.52E2,5.19E2,1.05E2,1.407E3,2.33E2,3.641E3,1.13E2,1.113E3,1.022E3,1.14E2,1.23E2,9.12E2,5.1E1,8.95E2,1.7E1,2.34E2,3.61E2,3E1,8.82E2,5.384E3,6.82E2,1.1E3,1.41E2,4.03E2,1.04E2,3.24E2,7.9E1,9.4E1,3.48E2,1.81E2,5.2E1,1.11E3,6.47E2,3.38E2,2.3E1,7.25E2,1.55E2,3.21E2,1.7E1,3.6E1,1.064E3,9E0,8.43E2,8.38E2,5E0,9E0,8.86E2,7.23E2,1.63E2,3.57E2,9.74E2,1.85E2,1.72E2,2.38E2,7.36E2,6.28E2,1.08E2,7.5E1,1.63E2,5.82E2,4.6E1,1.4E1,1.49E2,5.77E2,5E0,1.12E2,4.65E2,1.35E2,1.4E1,4E0,1.68E2,3.03E2,2.1E1,9E1,1.44E2,1.48E2,3.7E1,2.8E1,1.16E2,5.383E3,1E0,7E0,3.33E2,1E0,1.47E2,4.77E2,2.05E2,3.52E2,1.25E2,6E0,3.46E2],"tree_param":{"num_deleted":"0","num_feature":"8","num_nodes":"137","size_leaf_vector":"1"}},{"base_weights":[-0E0,-4.9215624E-1,3.7768742E-1,1.1629241E-1,1.1302382E0,3.431551E-1,-3.2056388E-1,-0E0,1.214829E0,-6.316146E-1,-2.6833153E-1,1.0197905E-1,5.1825386E-1,3.7491716E-2,-0E0,-5.6166106E-1,-3.7915632E-2,-2.385459E-2,-3.9959967E-1,-1.950249E-1,-7.013101E-1,-0E0,-3.526883E-1,-1.3002655E-1,-4.5372435E-1,-5.2879103E-2,-1.8223414E-2,5.491558E-1,-0E0,-0E0,1.6728137E-1,2.1699469E-1,-0E0,5.631605E-1,-0E0,-1.7989627E-1,-0E0,2.4904168E-1,-0E0,-2.903331E-2,-1.3196961E-2,1.8548734E-2,1.559492E-1,-1.4457229E-1,-0E0,-8.20657E-2,1.2441817E-2,3.0796483E-1,-0E0,-0E0,4.021483E-1,1.3940018E-2,-0E0,-0E0,-2.0774078E-1,-0E0,-1.0953232E-1,-2.7480675E-3,-0E0,-2.1284893E-2,-0E0,-0E0,-6.6227703E-3,1.7189786E-1,-0E0,-0E0,6.731313E-2,9.2415735E-2,-0E0,3.1609298E-3,-0E0,1.7737286E-1,-0E0,-0E0,5.5012614E-3,-1.15976244E-1,-0E0,-0E0,-4.4159354E-3,-3.531094E-1,-0E0,-0E0,-4.363879E-3,-0E0,-6.685763E-3,-0E0,-3.7952032E-2,-4.7936507E-2,-0E0,-1.6590928E-3,-0E0,-1.060312E-2,-0E0],"categories":[],"categories_nodes":[],"categories_segments":[],"categories_sizes":[],"default_left":[0,0,0,0,0,0,0,0,0,0,0,0,0,0,0,0,0,0,0,0,0,0,0,0,0,0,0,0,0,0,0,0,0,0,0,0,0,0,0,0,0,0,0,0,0,0,0,0,0,0,0,0,0,0,0,0,0,0,0,0,0,0,0,0,0,0,0,0,0,0,0,0,0,0,0,0,0,0,0,0,0,0,0,0,0,0,0,0,0,0,0,0,0],"id":13,"left_children":[1,9,3,5,7,11,23,-1,13,15,19,29,27,-1,-1,17,-1,-1,39,21,59,45,79,35,25,43,-1,33,-1,83,31,37,-1,41,-1,53,-1,47,-1,57,-1,-1,63,81,-1,55,65,49,-1,-1,51,-1,-1,-1,61,-1,75,-1,-1,-1,-1,-1,-1,71,-1,-1,67,69,-1,-1,-1,73,-1,-1,-1,77,-1,-1,-1,91,-1,-1,-1,-1,85,-1,87,89,-1,-1,-1,-1,-1],"loss_changes":[5.3192417E3,2.972046E2,3.0653108E3,1.2051243E3,3.8619287E2,2.8163074E2,4.3003326E1,0E0,2.076748E2,1.4269482E2,7.0232086E1,3.3745495E1,4.205774E1,0E0,0E0,1.367622E2,0E0,0E0,1.6665771E1,1.0386081E2,4.130768E0,9.218961E0,4.0863037E-1,2.0895573E1,5.9884583E1,9.7802925E0,0E0,2.3028564E1,0E0,2.7758345E-2,3.1965668E1,2.0341408E1,0E0,1.2166504E1,0E0,5.43441E0,0E0,8.137489E0,0E0,4.2919607E0,0E0,0E0,3.0673046E0,6.204033E-2,0E0,4.581214E0,2.385647E0,1.4539658E1,0E0,0E0,1.4228363E1,0E0,0E0,0E0,3.7769928E0,0E0,6.583605E-1,0E0,0E0,0E0,0E0,0E0,0E0,1.102005E0,0E0,0E0,1.7887173E0,1.1848359E0,0E0,0E0,0E0,1.1123886E0,0E0,0E0,0E0,3.4341183E0,0E0,0E0,0E0,1.2878418E-2,0E0,0E0,0E0,0E0,7.3563075E-1,0E0,3.281175E-1,3.184309E-1,0E0,0E0,0E0,0E0,0E0],"parents":[2147483647,0,0,2,2,3,3,4,4,1,1,5,5,8,8,9,9,15,15,10,10,19,19,6,6,24,24,12,12,11,11,30,30,27,27,23,23,31,31,18,18,33,33,25,25,21,21,37,37,47,47,50,50,35,35,45,45,39,39,20,20,54,54,42,42,46,46,66,66,67,67,63,63,71,71,56,56,75,75,22,22,43,43,29,29,84,84,86,86,87,87,79,79],"right_children":[2,10,4,6,8,12,24,-1,14,16,20,30,28,-1,-1,18,-1,-1,40,22,60,46,80,36,26,44,-1,34,-1,84,32,38,-1,42,-1,54,-1,48,-1,58,-1,-1,64,82,-1,56,66,50,-1,-1,52,-1,-1,-1,62,-1,76,-1,-1,-1,-1,-1,-1,72,-1,-1,68,70,-1,-1,-1,74,-1,-1,-1,78,-1,-1,-1,92,-1,-1,-1,-1,86,-1,88,90,-1,-1,-1,-1,-1],"split_conditions":[6.1E0,4.7E0,8.11E-1,6E-1,6.6E0,6.99E-1,1.1E0,-0E0,1.2E0,7.7E-1,8.07E-1,6.31E-1,3.8268343E-1,3.7491716E-2,-0E0,2.7E0,-3.7915632E-2,-2.385459E-2,3E-1,7E-1,2.2E0,5.6E0,8.05E-1,7.74E-1,6.46E-1,7.9E0,-1.8223414E-2,9.4E0,-0E0,7E0,9.3E0,3.8268343E-1,-0E0,4E-1,-0E0,6.6E0,-0E0,6.84E-1,-0E0,7.22E-1,-1.3196961E-2,1.8548734E-2,9.3E0,4.57E-1,-0E0,-9.238795E-1,6.63E-1,6.51E-1,-0E0,-0E0,4E-1,1.3940018E-2,-0E0,-0E0,5.53E-1,-0E0,7.92E-1,-2.7480675E-3,-0E0,-2.1284893E-2,-0E0,-0E0,-6.6227703E-3,8.09E-1,-0E0,-0E0,7.92E-1,1E0,-0E0,3.1609298E-3,-0E0,7.01E-1,-0E0,-0E0,5.5012614E-3,1E-1,-0E0,-0E0,-4.4159354E-3,4.8E0,-0E0,-0E0,-4.363879E-3,-0E0,5.67E-1,-0E0,6.29E-1,1E0,-0E0,-1.6590928E-3,-0E0,-1.060312E-2,-0E0],"split_indices":[4,4,0,5,4,0,5,0,5,0,0,0,6,0,0,4,0,0,5,5,5,4,0,0,0,4,0,4,0,4,4,6,0,5,0,4,0,0,0,0,0,0,4,0,0,6,0,0,0,0,5,0,0,0,0,0,0,0,0,0,0,0,0,0,0,0,0,6,0,0,0,0,0,0,0,5,0,0,0,5,0,0,0,0,0,0,0,6,0,0,0,0,0],"split_type":[0,0,0,0,0,0,0,0,0,0,0,0,0,0,0,0,0,0,0,0,0,0,0,0,0,0,0,0,0,0,0,0,0,0,0,0,0,0,0,0,0,0,0,0,0,0,0,0,0,0,0,0,0,0,0,0,0,0,0,0,0,0,0,0,0,0,0,0,0,0,0,0,0,0,0,0,0,0,0,0,0,0,0,0,0,0,0,0,0,0,0,0,0],"sum_hessian":[2.8625E4,1.2409E4,1.6216E4,1.2135E4,4.081E3,8.138E3,3.997E3,2.87E2,3.794E3,7.369E3,5.04E3,3.664E3,4.474E3,3.718E3,7.6E1,6.779E3,5.9E2,2.523E3,4.256E3,4.509E3,5.31E2,2.296E3,2.213E3,1.954E3,2.043E3,7.47E2,1.296E3,4.124E3,3.5E2,1.097E3,2.567E3,2.204E3,3.63E2,3.994E3,1.3E2,1.666E3,2.88E2,2.001E3,2.03E2,6.61E2,3.595E3,3.301E3,6.93E2,5.67E2,1.8E2,1.346E3,9.5E2,1.394E3,6.07E2,4.87E2,9.07E2,7.45E2,1.62E2,2.91E2,1.375E3,2.09E2,1.137E3,5.77E2,8.4E1,5.27E2,4E0,8E1,1.295E3,6.74E2,1.9E1,3.92E2,5.58E2,5.05E2,5.3E1,4.95E2,1E1,6.68E2,6E0,1E1,6.58E2,1.063E3,7.4E1,2.45E2,8.18E2,2.211E3,2E0,4E0,5.63E2,4.77E2,6.2E2,9.1E1,5.29E2,4.74E2,5.5E1,4.6E2,1.4E1,2.207E3,4E0],"tree_param":{"num_deleted":"0","num_feature":"8","num_nodes":"93","size_leaf_vector":"1"}},{"base_weights":[-0E0,-1.9035685E-1,1.6741946E0,1.2560059E-1,-5.179369E-1,2.9206695E-2,1.1187038E0,5.5277374E-2,-0E0,2.343029E-1,-2.349944E-1,4.955103E-3,7.8851473E-1,-3.6225235E-1,4.6542585E-1,-3.1998184E-1,-6.8774766E-1,-7.625676E-1,1.8192607E-1,-3.662818E-1,6.344153E-1,1.1204299E0,1.9611576E0,4.0539734E-2,4.8038548E-1,-8.568833E-1,-4.0757662E-1,-8.2165554E-2,-8.0922234E-1,-0E0,-4.1295686E-1,-5.66129E-1,-1.2692773E-1,1.26684E-1,7.996202E-1,2.0536693E-2,-0E0,-1.7693663E-2,-0E0,-0E0,-3.4875637E-1,-0E0,2.6280262E-2,-2.585054E-2,-0E0,7.105955E-2,-7.200247E-2,3.445067E-2,-0E0,2.0373169E-1,-0E0,-1.2718971E-1,-1.23098465E-2,-0E0,-1.9110864E-1,-0E0,-1.4416853E-1,-1.0632948E-1,1.4187977E-1,5.890021E-2,-0E0,-2.4491318E-2,-0E0,-0E0,-1.0710459E-1,-0E0,-1.39407E-1,2.190988E-1,-0E0,8.136491E-2,-0E0,1.9995082E-2,-0E0,-0E0,-4.701974E-3,-4.400341E-3,-0E0,2.1010384E-1,-0E0,7.2460095E-3,-0E0,7.0199305E-3,-0E0,1.5745163E-1,-0E0,-0E0,-1.5499859E-1,-3.5442957E-1,-0E0,-0E0,8.243236E-2,-0E0,1.7781813E-1,5.861149E-3,-0E0,-0E0,-1.0818242E-2,-0E0,-5.0419704E-3,-5.783612E-3,-0E0,2.497103E-3,-0E0],"categories":[],"categories_nodes":[],"categories_segments":[],"categories_sizes":[],"default_left":[0,0,0,0,0,0,0,0,0,0,0,0,0,0,0,0,0,0,0,0,0,0,0,0,0,0,0,0,0,0,0,0,0,0,0,0,0,0,0,0,0,0,0,0,0,0,0,0,0,0,0,0,0,0,0,0,0,0,0,0,0,0,0,0,0,0,0,0,0,0,0,0,0,0,0,0,0,0,0,0,0,0,0,0,0,0,0,0,0,0,0,0,0,0,0,0,0,0,0,0,0,0,0],"id":14,"left_children":[1,3,21,5,15,9,7,-1,-1,11,13,45,23,29,35,19,17,25,77,51,71,47,59,-1,33,43,27,55,61,57,31,37,39,49,41,-1,-1,-1,-1,-1,87,-1,-1,-1,-1,69,63,-1,-1,67,-1,53,-1,-1,99,-1,85,73,83,-1,-1,-1,-1,-1,65,-1,75,81,-1,89,-1,-1,-1,-1,-1,-1,-1,79,-1,-1,-1,-1,-1,91,-1,-1,97,95,-1,-1,101,-1,93,-1,-1,-1,-1,-1,-1,-1,-1,-1,-1],"loss_changes":[9.13266E3,2.699387E3,1.5461523E2,1.122762E3,3.2840356E2,6.4356055E2,9.241881E2,0E0,0E0,7.9768933E2,4.3356067E2,2.5392796E1,1.4428687E2,7.673193E1,5.147525E1,2.4615076E2,4.8785254E2,8.0319824E1,1.5273962E0,9.246033E0,2.8777466E0,2.348645E1,7.7700195E0,0E0,5.845984E1,3.180249E1,1.0985075E2,9.159328E0,5.6608276E0,8.064956E0,9.644977E1,4.7613037E1,4.1820023E1,1.3592332E1,4.034372E1,0E0,0E0,0E0,0E0,0E0,5.570755E-1,0E0,0E0,0E0,0E0,2.8883877E0,5.2386265E0,0E0,0E0,3.235962E0,0E0,1.1372425E1,0E0,0E0,2.7032852E-1,0E0,7.2939014E-1,2.77919E0,8.7035465E-1,0E0,0E0,0E0,0E0,0E0,4.3407593E0,0E0,1.8359871E0,1.2908783E0,0E0,5.221138E-1,0E0,0E0,0E0,0E0,0E0,0E0,0E0,1.4978447E0,0E0,0E0,0E0,0E0,0E0,4.7600842E-1,0E0,0E0,2.7329445E-1,2.8736877E-1,0E0,0E0,7.736206E-2,0E0,4.5932674E-1,0E0,0E0,0E0,0E0,0E0,0E0,0E0,0E0,0E0,0E0],"parents":[2147483647,0,0,1,1,3,3,6,6,5,5,9,9,10,10,4,4,16,16,15,15,2,2,12,12,17,17,26,26,13,13,30,30,24,24,14,14,31,31,32,32,34,34,25,25,11,11,21,21,33,33,19,19,51,51,27,27,29,29,22,22,28,28,46,46,64,64,49,49,45,45,20,20,57,57,66,66,18,18,77,77,67,67,58,58,56,56,40,40,69,69,83,83,92,92,87,87,86,86,54,54,90,90],"right_children":[2,4,22,6,16,10,8,-1,-1,12,14,46,24,30,36,20,18,26,78,52,72,48,60,-1,34,44,28,56,62,58,32,38,40,50,42,-1,-1,-1,-1,-1,88,-1,-1,-1,-1,70,64,-1,-1,68,-1,54,-1,-1,100,-1,86,74,84,-1,-1,-1,-1,-1,66,-1,76,82,-1,90,-1,-1,-1,-1,-1,-1,-1,80,-1,-1,-1,-1,-1,92,-1,-1,98,96,-1,-1,102,-1,94,-1,-1,-1,-1,-1,-1,-1,-1,-1,-1],"split_conditions":[8.9E-2,5E-1,9.1E-2,5.1E-2,8.4E-2,8.3E-2,8.7E-2,5.5277374E-2,-0E0,2E-3,8.8E-2,5.9E-2,2.9E-2,8.5E-2,2.9E-2,1.8E-2,8.8E-2,8.7E-2,1.7E0,7E-1,1.3E0,1.8E0,2.9E0,4.0539734E-2,3.1E-2,4.4E-2,1E-3,-3.8268343E-1,7.4E-2,1E-3,8.7E-2,4.4E-2,2.4E-2,1.2246469E-16,3.4E-2,2.0536693E-2,-0E0,-1.7693663E-2,-0E0,-0E0,9.238795E-1,-0E0,2.6280262E-2,-2.585054E-2,-0E0,3.8268343E-1,1E-1,3.445067E-2,-0E0,3E-2,-0E0,2.7E-2,-1.23098465E-2,-0E0,1.6E-2,-0E0,6E-1,-9.238795E-1,3.8268343E-1,5.890021E-2,-0E0,-2.4491318E-2,-0E0,-0E0,-9.238795E-1,-0E0,1E-3,4E-1,-0E0,1.8E-2,-0E0,1.9995082E-2,-0E0,-0E0,-4.701974E-3,-4.400341E-3,-0E0,2.8E-2,-0E0,7.2460095E-3,-0E0,7.0199305E-3,-0E0,1E-2,-0E0,-0E0,0E0,2.5E-2,-0E0,-0E0,5.8E-2,-0E0,4E-1,5.861149E-3,-0E0,-0E0,-1.0818242E-2,-0E0,-5.0419704E-3,-5.783612E-3,-0E0,2.497103E-3,-0E0],"split_indices":[2,5,2,1,2,2,2,0,0,1,2,2,2,2,1,1,2,2,5,5,5,5,5,0,1,1,1,6,1,1,2,1,1,6,2,0,0,0,0,0,6,0,0,0,0,6,5,0,0,1,0,2,0,0,1,0,5,6,6,0,0,0,0,0,6,0,1,5,0,2,0,0,0,0,0,0,0,1,0,0,0,0,0,1,0,0,6,1,0,0,2,0,5,0,0,0,0,0,0,0,0,0,0],"split_type":[0,0,0,0,0,0,0,0,0,0,0,0,0,0,0,0,0,0,0,0,0,0,0,0,0,0,0,0,0,0,0,0,0,0,0,0,0,0,0,0,0,0,0,0,0,0,0,0,0,0,0,0,0,0,0,0,0,0,0,0,0,0,0,0,0,0,0,0,0,0,0,0,0,0,0,0,0,0,0,0,0,0,0,0,0,0,0,0,0,0,0,0,0,0,0,0,0,0,0,0,0,0,0],"sum_hessian":[2.8625E4,2.57E4,2.925E3,1.2927E4,1.2773E4,1.1876E4,1.051E3,6.59E2,3.92E2,6.899E3,4.977E3,5.008E3,1.891E3,4.333E3,6.44E2,6.171E3,6.602E3,6.185E3,4.17E2,5.986E3,1.85E2,1.119E3,1.806E3,5.53E2,1.338E3,4.663E3,1.522E3,9.79E2,5.43E2,5.49E2,3.784E3,2.236E3,1.548E3,7.84E2,5.54E2,4.07E2,2.37E2,2.197E3,3.9E1,1E3,5.48E2,4E1,5.14E2,4.654E3,9E0,3.393E3,1.615E3,1.083E3,3.6E1,6.3E2,1.54E2,1.285E3,4.701E3,4.05E2,8.8E2,2.21E2,7.58E2,3.42E2,2.07E2,1.804E3,2E0,5.42E2,1E0,4.29E2,1.186E3,2.63E2,9.23E2,6.12E2,1.8E1,3.024E3,3.69E2,1.74E2,1.1E1,7.2E1,2.7E2,9.19E2,4E0,3.47E2,7E1,2.88E2,5.9E1,5.6E2,5.2E1,2.03E2,4E0,7.2E1,6.86E2,5.35E2,1.3E1,1E0,3.023E3,2.9E1,1.74E2,1.56E2,1.8E1,1.6E1,5.19E2,9.3E1,5.93E2,8.72E2,8E0,2.976E3,4.7E1],"tree_param":{"num_deleted":"0","num_feature":"8","num_nodes":"103","size_leaf_vector":"1"}},{"base_weights":[-0E0,-2.2178593E-1,8.260669E-1,5.9253335E-1,5.1326673E-2,3.842766E-1,1.1482271E0,-1.23528145E-1,-4.1061008E-1,-0E0,6.7935294E-1,-1.9078568E-1,1.5747452E-1,-3.0185425E-1,8.294319E-1,-1.8450884E-2,-1.17678136E-1,2.818338E-1,2.8512238E-2,-6.567237E-1,-3.0692797E-2,-3.8093448E-1,1.2070842E-1,1.8826908E-1,3.250594E-2,6.1528147E-3,-1.4842595E-1,-2.594192E-1,-3.805079E-2,-0E0,-8.0086726E-1,-6.680469E-2,2.3030685E-1,-1.3782241E-2,-1.4074512E-1,-0E0,-2.0166808E-1,-0E0,3.588897E-1,-0E0,4.177549E-1,-3.9577085E-1,-0E0,-0E0,3.0537802E-1,1.2370321E-2,-0E0,-8.017458E-3,-0E0,-0E0,-4.971785E-1,-0E0,-5.3423762E-2,3.7302724E-1,-0E0,4.3881148E-2,-0E0,-0E0,1.1328848E-1,-0E0,1.4108387E-1,-0E0,5.705714E-3,-0E0,-5.065275E-1,-1.5868329E-2,-0E0,3.4502592E-2,-0E0,-0E0,4.0773223E-3,1.281611E-2,-0E0,-0E0,1.9729016E-3,-0E0,1.1245564E-2,-1.6337102E-3,-0E0,-2.4548115E-2,-0E0,-0E0,-1.164398E-2,-0E0,-1.6680717E-1,-5.0208787E-3,-0E0],"categories":[],"categories_nodes":[],"categories_segments":[],"categories_sizes":[],"default_left":[0,0,0,0,0,0,0,0,0,0,0,0,0,0,0,0,0,0,0,0,0,0,0,0,0,0,0,0,0,0,0,0,0,0,0,0,0,0,0,0,0,0,0,0,0,0,0,0,0,0,0,0,0,0,0,0,0,0,0,0,0,0,0,0,0,0,0,0,0,0,0,0,0,0,0,0,0,0,0,0,0,0,0,0,0,0,0],"id":15,"left_children":[1,7,3,5,-1,9,67,11,33,31,17,15,13,19,23,-1,25,39,-1,29,21,81,59,43,-1,55,27,47,51,-1,79,35,37,-1,83,57,41,-1,53,-1,71,49,-1,-1,45,-1,-1,-1,-1,-1,63,-1,77,75,-1,73,-1,-1,69,-1,61,-1,-1,-1,65,-1,-1,-1,-1,-1,-1,-1,-1,-1,-1,-1,-1,-1,-1,-1,-1,-1,-1,-1,85,-1,-1],"loss_changes":[5.2529087E3,3.650083E2,1.02333594E3,4.1279187E2,0E0,3.5739417E2,1.1723633E0,2.9035077E2,3.6987793E1,4.1522896E1,8.726605E1,3.155903E2,8.6969434E2,7.403894E1,6.209088E1,0E0,5.5726517E1,2.5540833E1,0E0,4.247171E1,7.920166E1,2.1802521E-1,1.9558339E0,1.880238E1,0E0,2.3955383E0,8.5132065E1,7.704254E0,5.659412E0,0E0,3.046112E-1,2.873085E1,2.7794853E1,0E0,1.6620445E-1,2.387176E0,2.4564709E1,0E0,3.942093E0,0E0,7.661133E-1,5.819313E0,0E0,0E0,1.7523827E1,0E0,0E0,0E0,0E0,0E0,1.9078331E0,0E0,3.5238743E-1,5.32341E-1,0E0,7.4721265E-1,0E0,0E0,9.562075E-1,0E0,2.7897491E0,0E0,0E0,0E0,1.4657593E0,0E0,0E0,0E0,0E0,0E0,0E0,0E0,0E0,0E0,0E0,0E0,0E0,0E0,0E0,0E0,0E0,0E0,0E0,0E0,1.6391754E-1,0E0,0E0],"parents":[2147483647,0,0,2,2,3,3,1,1,5,5,7,7,12,12,11,11,10,10,13,13,20,20,14,14,16,16,26,26,19,19,9,9,8,8,31,31,32,32,17,17,36,36,23,23,44,44,27,27,41,41,28,28,38,38,25,25,35,35,22,22,60,60,50,50,64,64,6,6,58,58,40,40,55,55,53,53,52,52,30,30,21,21,34,34,84,84],"right_children":[2,8,4,6,-1,10,68,12,34,32,18,16,14,20,24,-1,26,40,-1,30,22,82,60,44,-1,56,28,48,52,-1,80,36,38,-1,84,58,42,-1,54,-1,72,50,-1,-1,46,-1,-1,-1,-1,-1,64,-1,78,76,-1,74,-1,-1,70,-1,62,-1,-1,-1,66,-1,-1,-1,-1,-1,-1,-1,-1,-1,-1,-1,-1,-1,-1,-1,-1,-1,-1,-1,86,-1,-1],"split_conditions":[2.3E-2,3.8268343E-1,7.3E0,5.5E-2,5.1326673E-2,2.1E0,7.2E0,1E-3,2.53E1,4.5E-2,3.1E-2,1.16E1,8.4E0,5E0,9.9E0,-1.8450884E-2,-9.238795E-1,0E0,2.8512238E-2,-3.8268343E-1,1.4E-2,2E-3,5.2E0,4E-3,3.250594E-2,2.55E1,0E0,3.12E1,1.4E1,-0E0,4.9E0,-3.8268343E-1,-3.8268343E-1,-1.3782241E-2,-7.0710677E-1,2.9E-2,1E0,-0E0,9.238795E-1,-0E0,7E0,-9.238795E-1,-0E0,-0E0,1.2246469E-16,1.2370321E-2,-0E0,-8.017458E-3,-0E0,-0E0,-1.5E0,-0E0,3.25E1,-3.4E0,-0E0,1.79E1,-0E0,-0E0,-1.5E0,-0E0,-3.8268343E-1,-0E0,5.705714E-3,-0E0,1E0,-1.5868329E-2,-0E0,3.4502592E-2,-0E0,-0E0,4.0773223E-3,1.281611E-2,-0E0,-0E0,1.9729016E-3,-0E0,1.1245564E-2,-1.6337102E-3,-0E0,-2.4548115E-2,-0E0,-0E0,-1.164398E-2,-0E0,3.62E1,-5.0208787E-3,-0E0],"split_indices":[1,6,3,1,0,3,3,1,3,1,1,3,3,3,3,0,6,6,0,7,1,1,3,1,0,3,6,3,3,0,3,7,6,0,7,1,7,0,6,0,3,6,0,0,6,0,0,0,0,0,3,0,3,3,0,3,0,0,3,0,6,0,0,0,6,0,0,0,0,0,0,0,0,0,0,0,0,0,0,0,0,0,0,0,3,0,0],"split_type":[0,0,0,0,0,0,0,0,0,0,0,0,0,0,0,0,0,0,0,0,0,0,0,0,0,0,0,0,0,0,0,0,0,0,0,0,0,0,0,0,0,0,0,0,0,0,0,0,0,0,0,0,0,0,0,0,0,0,0,0,0,0,0,0,0,0,0,0,0,0,0,0,0,0,0,0,0,0,0,0,0,0,0,0,0,0,0],"sum_hessian":[2.8625E4,2.2554E4,6.071E3,4.894E3,1.177E3,3.692E3,1.202E3,1.5184E4,7.37E3,1.737E3,1.955E3,1.2539E4,2.645E3,1.483E3,1.162E3,1.641E3,1.0898E4,9.43E2,1.012E3,4.82E2,1.001E3,5.01E2,5E2,4.42E2,7.2E2,1.521E3,9.377E3,4.223E3,5.154E3,9.2E1,3.9E2,1.043E3,6.94E2,5.927E3,1.443E3,2.23E2,8.2E2,1.93E2,5.01E2,3.68E2,5.75E2,3.69E2,4.51E2,7.3E1,3.69E2,3.05E2,6.4E1,4.087E3,1.36E2,1.12E2,2.57E2,5.57E2,4.597E3,4.92E2,9E0,1.273E3,2.48E2,3.8E1,1.85E2,3.6E1,4.64E2,1.32E2,3.32E2,2E0,2.55E2,2.39E2,1.6E1,1.199E3,3E0,5E0,1.8E2,5.54E2,2.1E1,5.34E2,7.39E2,1E0,4.91E2,4.543E3,5.4E1,3.74E2,1.6E1,1.7E1,4.84E2,4.1E2,1.033E3,1.032E3,1E0],"tree_param":{"num_deleted":"0","num_feature":"8","num_nodes":"87","size_leaf_vector":"1"}},{"base_weights":[-0E0,3.5901913E-1,-4.0174583E-1,1.6008374E-1,8.887758E-1,-2.2289659E-1,-6.013668E-1,-1.8770258E-1,2.598456E-1,-1.9090986E-1,3.744141E-1,2.4815772E-1,1.0508844E0,-3.6981896E-1,3.5289302E-1,1.6187453E-1,6.6412365E-1,-2.2844936E-1,3.1568485E-1,-8.232603E-1,-3.7202352E-1,5.994161E-1,3.6054276E-2,1.5422997E-1,2.9828116E-2,-2.7848205E-1,4.367009E-2,6.760483E-2,7.92144E-1,-1.8988365E-4,1.8290022E-2,-0E0,2.8867024E-1,-2.3503667E-1,-0E0,-3.8886946E-1,-1.7380556E-1,-3.1991825E-1,-3.6264934E-2,-1.627849E-2,-1.6792771E-1,-4.2142034E-1,1.5350434E-1,3.3840773E-1,-0E0,-2.4815184E-1,-0E0,-0E0,2.0807467E-1,-1.55739E-1,-0E0,-0E0,-2.4306358E-1,3.1810567E-2,-0E0,-0E0,1.0999951E-2,-3.975004E-1,-0E0,3.4598702E-1,-0E0,-1.039052E-2,-0E0,8.020872E-1,-0E0,-7.090899E-2,-0E0,-1.0241849E-1,-0E0,-2.4801088E-2,-0E0,-0E0,1.2947279E-2,-0E0,-4.483012E-1,2.4891535E-2,-0E0,-0E0,2.2794439E-1,-7.973739E-3,-0E0,-0E0,2.311919E-1,2.4276014E-1,-0E0,-0E0,-2.6970205E-1,-0E0,7.5504323E-3,-7.4233874E-3,-0E0,-7.2460775E-3,-0E0,-8.362373E-3,-0E0,-4.8639532E-2,-0E0,-3.7267113E-1,-0E0,-1.1323808E-2,-0E0,-1.3816318E-2,-0E0,-1.9211232E-3,-0E0,-0E0,-1.3056606E-2,-0E0,-1.06890194E-1,-0E0,2.3853056E-1,7.3777596E-3,-0E0,-3.3087896E-3,-0E0],"categories":[],"categories_nodes":[],"categories_segments":[],"categories_sizes":[],"default_left":[0,0,0,0,0,0,0,0,0,0,0,0,0,0,0,0,0,0,0,0,0,0,0,0,0,0,0,0,0,0,0,0,0,0,0,0,0,0,0,0,0,0,0,0,0,0,0,0,0,0,0,0,0,0,0,0,0,0,0,0,0,0,0,0,0,0,0,0,0,0,0,0,0,0,0,0,0,0,0,0,0,0,0,0,0,0,0,0,0,0,0,0,0,0,0,0,0,0,0,0,0,0,0,0,0,0,0,0,0,0,0,0,0,0,0],"id":16,"left_children":[1,3,5,7,21,25,19,45,9,33,11,13,53,57,15,17,27,91,43,69,97,23,-1,47,-1,35,31,29,63,-1,-1,49,59,89,-1,39,37,61,65,-1,41,105,81,55,-1,79,95,-1,77,51,-1,-1,85,-1,-1,-1,-1,73,-1,71,-1,-1,-1,75,-1,67,-1,107,-1,-1,-1,-1,-1,-1,101,-1,-1,-1,83,-1,-1,-1,109,87,-1,-1,93,-1,-1,-1,-1,-1,-1,-1,-1,103,-1,99,-1,-1,-1,-1,-1,-1,-1,-1,-1,-1,113,-1,111,-1,-1,-1,-1],"loss_changes":[4.1283613E3,1.4902202E3,3.990603E2,3.9387857E2,1.81021E2,1.3285931E2,1.9110205E2,1.2955185E1,4.7716095E2,1.8039402E1,4.899021E2,4.025743E2,1.0209473E1,9.33918E0,2.4296417E2,2.2462454E2,5.784619E1,1.3896179E0,1.5528137E1,6.8082275E0,1.2790222E0,2.7945532E2,0E0,1.1015974E1,0E0,1.7824677E1,3.4993668E1,7.9254005E1,8.244812E0,0E0,0E0,1.0744803E1,8.895992E0,2.4311295E0,0E0,1.9144379E1,3.995276E1,8.271973E0,7.455475E0,0E0,1.375885E2,6.233978E-1,3.9657345E0,9.869263E0,0E0,4.5215683E0,1.3153871E0,0E0,4.887535E0,1.1410161E1,0E0,0E0,3.085537E0,0E0,0E0,0E0,0E0,4.9388275E0,0E0,5.3065643E0,0E0,0E0,0E0,4.888916E0,0E0,8.67495E0,0E0,3.370781E-1,0E0,0E0,0E0,0E0,0E0,0E0,6.593399E-1,0E0,0E0,0E0,3.3518295E0,0E0,0E0,0E0,3.341818E-1,2.5829582E0,0E0,0E0,1.3326263E0,0E0,0E0,0E0,0E0,0E0,0E0,0E0,0E0,6.4889324E-1,0E0,1.1885376E0,0E0,0E0,0E0,0E0,0E0,0E0,0E0,0E0,0E0,0E0,4.358864E-2,0E0,1.16542816E-1,0E0,0E0,0E0,0E0],"parents":[2147483647,0,0,1,1,2,2,3,3,8,8,10,10,11,11,14,14,15,15,6,6,4,4,21,21,5,5,16,16,27,27,26,26,9,9,25,25,36,36,35,35,40,40,18,18,7,7,23,23,31,31,49,49,12,12,43,43,13,13,32,32,37,37,28,28,38,38,65,65,19,19,59,59,57,57,63,63,48,48,45,45,42,42,78,78,52,52,83,83,33,33,17,17,86,86,46,46,20,20,97,97,74,74,95,95,41,41,67,67,82,82,110,110,108,108],"right_children":[2,4,6,8,22,26,20,46,10,34,12,14,54,58,16,18,28,92,44,70,98,24,-1,48,-1,36,32,30,64,-1,-1,50,60,90,-1,40,38,62,66,-1,42,106,82,56,-1,80,96,-1,78,52,-1,-1,86,-1,-1,-1,-1,74,-1,72,-1,-1,-1,76,-1,68,-1,108,-1,-1,-1,-1,-1,-1,102,-1,-1,-1,84,-1,-1,-1,110,88,-1,-1,94,-1,-1,-1,-1,-1,-1,-1,-1,104,-1,100,-1,-1,-1,-1,-1,-1,-1,-1,-1,-1,114,-1,112,-1,-1,-1,-1],"split_conditions":[5E-1,8.11E-1,1.2E0,6.22E-1,2.1E0,7.87E-1,1.84E1,2.65E1,8.3E0,8.08E-1,7.71E-1,1.16E1,1.58E1,7.7E-1,7.07E-1,1.77E1,1.33E1,7.05E-1,3.8268343E-1,8.72E-1,7.41E-1,8.51E-1,3.6054276E-2,-3.8268343E-1,2.9828116E-2,1.77E1,1.2246469E-16,7.49E-1,2.05E1,-1.8988365E-4,1.8290022E-2,7.8E0,9.238795E-1,8E0,-0E0,7.14E-1,5.3E-1,3.12E1,6.89E-1,-1.627849E-2,1.16E1,7.2E-1,7.32E-1,6.34E-1,-0E0,6.16E-1,5.53E-1,-0E0,-1.7E0,-9E-1,-0E0,-0E0,7.91E-1,3.1810567E-2,-0E0,-0E0,1.0999951E-2,7.18E-1,-0E0,8.04E-1,-0E0,-1.039052E-2,-0E0,3.8268343E-1,-0E0,2.67E1,-0E0,-9.238795E-1,-0E0,-2.4801088E-2,-0E0,-0E0,1.2947279E-2,-0E0,7.69E-1,2.4891535E-2,-0E0,-0E0,3.8268343E-1,-7.973739E-3,-0E0,-0E0,1.18E1,8.12E-1,-0E0,-0E0,8.47E-1,-0E0,7.5504323E-3,-7.4233874E-3,-0E0,-7.2460775E-3,-0E0,-8.362373E-3,-0E0,3.25E1,-0E0,3.25E1,-0E0,-1.1323808E-2,-0E0,-1.3816318E-2,-0E0,-1.9211232E-3,-0E0,-0E0,-1.3056606E-2,-0E0,2.62E1,-0E0,1E0,7.3777596E-3,-0E0,-3.3087896E-3,-0E0],"split_indices":[5,0,5,0,3,0,3,3,3,0,0,3,3,0,0,3,3,0,6,0,0,0,0,6,0,3,6,0,3,0,0,3,6,3,0,0,0,3,0,0,3,0,0,0,0,0,0,0,3,3,0,0,0,0,0,0,0,0,0,0,0,0,0,6,0,3,0,6,0,0,0,0,0,0,0,0,0,0,6,0,0,0,3,0,0,0,0,0,0,0,0,0,0,0,0,3,0,3,0,0,0,0,0,0,0,0,0,0,3,0,6,0,0,0,0],"split_type":[0,0,0,0,0,0,0,0,0,0,0,0,0,0,0,0,0,0,0,0,0,0,0,0,0,0,0,0,0,0,0,0,0,0,0,0,0,0,0,0,0,0,0,0,0,0,0,0,0,0,0,0,0,0,0,0,0,0,0,0,0,0,0,0,0,0,0,0,0,0,0,0,0,0,0,0,0,0,0,0,0,0,0,0,0,0,0,0,0,0,0,0,0,0,0,0,0,0,0,0,0,0,0,0,0,0,0,0,0,0,0,0,0,0,0],"sum_hessian":[2.8625E4,1.5136E4,1.3489E4,1.1142E4,3.994E3,7.38E3,6.109E3,2.26E3,8.882E3,1.623E3,7.259E3,6.243E3,1.016E3,7.66E2,5.477E3,3.594E3,1.883E3,8.32E2,2.762E3,2.882E3,3.227E3,2.243E3,1.751E3,1.174E3,1.069E3,6.417E3,9.63E2,4.71E2,1.412E3,2.53E2,2.18E2,5.22E2,4.41E2,1.397E3,2.26E2,2.657E3,3.76E3,1.47E3,2.29E3,1.299E3,1.358E3,9.33E2,4.25E2,2.539E3,2.23E2,1.503E3,7.57E2,2.75E2,8.99E2,4.42E2,8E1,6.8E1,3.74E2,1.007E3,9E0,3.03E2,2.236E3,7.22E2,4.4E1,3.81E2,6E1,1.323E3,1.47E2,1.39E3,2.2E1,2.081E3,2.09E2,1.824E3,2.57E2,2.868E3,1.4E1,1.08E2,2.73E2,1.3E2,5.92E2,1.306E3,8.4E1,5.6E1,8.43E2,1.374E3,1.29E2,1.64E2,2.61E2,8E2,4.3E1,2.8E1,3.46E2,1.5E1,7.85E2,1.3E3,9.7E1,7.68E2,6.4E1,3.41E2,5E0,5.55E2,2.02E2,3.225E3,2E0,3.152E3,7.3E1,5.64E2,2.8E1,4.78E2,7.7E1,5.5E1,8.78E2,1.2E2,1.704E3,1E1,2.51E2,2.38E2,1.3E1,1.604E3,1E2],"tree_param":{"num_deleted":"0","num_feature":"8","num_nodes":"115","size_leaf_vector":"1"}},{"base_weights":[-0E0,-2.1112563E-1,7.861936E-1,-8.7095463E-1,1.0955846E0,-4.8595527E-1,-2.2398813E-2,-1.0652081E-1,3.076278E-1,-0E0,1.0857726E0,-1.1405796E0,-0E0,9.197457E-1,4.9269013E-2,1.6718505E-1,1.1301033E0,-3.352302E-1,-1.2476775E-2,-8.292957E-1,-4.0227947E-1,-2.4349289E-2,-3.2031322E-1,-1.2897E-1,-6.273058E-1,-4.480257E-1,2.2509932E-3,-0E0,3.9687678E-1,-2.245411E-1,9.479245E-2,-1.2931748E-1,2.6433295E-1,1.9235477E-2,-1.2521252E-1,3.5476628E-1,-0E0,-3.5584494E-1,-0E0,3.4959283E-2,-0E0,-3.2766005E-1,-0E0,-0E0,-1.6074821E-2,-1.188507E0,-0E0,3.8973176E-1,-0E0,-1.8112347E-1,-0E0,-0E0,1.2632294E-2,4.6791412E-2,-6.0025197E-2,-0E0,7.233416E-2,-1.0096119E-2,-0E0,-0E0,-6.3786465E-1,-1.1945163E0,-0E0,-0E0,9.385197E-2,-0E0,1.3987549E-1,-0E0,-5.8139474E-3,-0E0,1.2550437E-2,1.3862264E-1,-4.8657253E-2,-3.1592422E-3,-0E0,-1.9898792E-1,-0E0,-0E0,-1.9438023E-2,-3.629167E-2,-0E0,-0E0,-3.81576E-1,-0E0,3.267331E-2,-1.2279044E-2,-0E0,-0E0,4.1777242E-2,6.8768494E-2,-0E0,-0E0,1.2180347E-3,-0E0,-4.2709652E-2,5.1663835E-3,-0E0,-2.3244012E-3,-0E0,-0E0,-2.3063123E-3,8.438648E-2,-0E0,-0E0,3.954996E-3,-2.4975697E-2,-0E0,4.432939E-3,-0E0,-6.175439E-3,-0E0,-1.9368714E-2,-0E0,-4.0229615E-2,-0E0,-1.5589662E-3,-0E0,-0E0,5.390881E-4],"categories":[],"categories_nodes":[],"categories_segments":[],"categories_sizes":[],"default_left":[0,0,0,0,0,0,0,0,0,0,0,0,0,0,0,0,0,0,0,0,0,0,0,0,0,0,0,0,0,0,0,0,0,0,0,0,0,0,0,0,0,0,0,0,0,0,0,0,0,0,0,0,0,0,0,0,0,0,0,0,0,0,0,0,0,0,0,0,0,0,0,0,0,0,0,0,0,0,0,0,0,0,0,0,0,0,0,0,0,0,0,0,0,0,0,0,0,0,0,0,0,0,0,0,0,0,0,0,0,0,0,0,0,0,0,0,0,0,0],"id":17,"left_children":[1,5,3,11,13,19,7,17,9,29,83,45,117,15,-1,27,39,23,33,105,21,-1,41,25,59,43,87,111,69,37,31,75,35,53,49,47,-1,81,-1,-1,-1,57,-1,-1,-1,61,-1,51,-1,67,-1,-1,-1,55,99,93,63,-1,-1,-1,77,79,-1,71,65,91,107,-1,-1,-1,-1,95,73,-1,-1,109,-1,-1,-1,-1,-1,-1,85,-1,-1,-1,-1,-1,89,101,-1,-1,-1,-1,97,-1,-1,-1,-1,-1,-1,103,-1,-1,-1,-1,-1,-1,-1,-1,-1,113,-1,115,-1,-1,-1,-1,-1],"loss_changes":[4.758473E3,1.1190303E3,3.136573E3,2.9960022E2,2.3910547E2,1.3412427E2,3.571866E2,2.0334854E2,6.670117E2,4.4962105E1,2.0166626E0,1.6811035E1,2.5186714E-2,5.113838E2,0E0,5.013919E1,2.0670898E1,9.996179E1,3.975866E1,5.391846E-1,1.3638733E2,0E0,1.955951E1,1.24585945E2,8.149567E0,1.9345566E1,1.6872369E0,1.23798534E-1,5.146576E0,3.1059887E1,5.335524E1,4.21212E0,3.1535141E1,1.1072024E1,1.4610008E1,1.5327454E1,0E0,3.42865E0,0E0,0E0,0E0,8.6467285E0,0E0,0E0,0E0,7.3135376E0,0E0,1.1407181E1,0E0,6.065258E0,0E0,0E0,0E0,1.0298226E1,8.28063E-1,1.3662616E0,7.2267265E0,0E0,0E0,0E0,4.0404663E0,3.932495E0,0E0,4.9896097E0,6.5993786E0,1.6566961E0,3.713646E-1,0E0,0E0,0E0,0E0,1.3631008E0,4.6470904E0,0E0,0E0,2.3105288E-1,0E0,0E0,0E0,0E0,0E0,0E0,1.8356552E0,0E0,0E0,0E0,0E0,0E0,2.6246958E0,6.7420244E-1,0E0,0E0,0E0,0E0,9.269444E-1,0E0,0E0,0E0,0E0,0E0,0E0,7.9566145E-1,0E0,0E0,0E0,0E0,0E0,0E0,0E0,0E0,0E0,4.0542537E-1,0E0,3.0520517E-1,0E0,0E0,0E0,0E0,0E0],"parents":[2147483647,0,0,2,2,1,1,6,6,8,8,3,3,4,4,13,13,7,7,5,5,20,20,17,17,23,23,15,15,9,9,30,30,18,18,32,32,29,29,16,16,22,22,25,25,11,11,35,35,34,34,47,47,33,33,53,53,41,41,24,24,45,45,56,56,64,64,49,49,28,28,63,63,72,72,31,31,60,60,61,61,37,37,10,10,82,82,26,26,88,88,65,65,55,55,71,71,94,94,54,54,89,89,101,101,19,19,66,66,75,75,27,27,111,111,113,113,12,12],"right_children":[2,6,4,12,14,20,8,18,10,30,84,46,118,16,-1,28,40,24,34,106,22,-1,42,26,60,44,88,112,70,38,32,76,36,54,50,48,-1,82,-1,-1,-1,58,-1,-1,-1,62,-1,52,-1,68,-1,-1,-1,56,100,94,64,-1,-1,-1,78,80,-1,72,66,92,108,-1,-1,-1,-1,96,74,-1,-1,110,-1,-1,-1,-1,-1,-1,86,-1,-1,-1,-1,-1,90,102,-1,-1,-1,-1,98,-1,-1,-1,-1,-1,-1,104,-1,-1,-1,-1,-1,-1,-1,-1,-1,114,-1,116,-1,-1,-1,-1,-1],"split_conditions":[2.3E-2,5.3E0,6.1E0,3.7E0,7.3E0,2.2E0,1E-3,1.52E1,9.9E0,1.3E-2,5.4E0,6E0,5.6E0,7.6E0,4.9269013E-2,1.9E0,6.3E0,3.8268343E-1,3.8268343E-1,2.92E1,8.1E0,-2.4349289E-2,2E-3,1.16E1,6.1E0,5.9E0,5.8E0,7.1E0,6.2E0,9.1E0,4.3E0,9.1E0,3.8268343E-1,9.3E0,2.43E1,9.4E0,-0E0,5.3E0,-0E0,3.4959283E-2,-0E0,3.18E1,-0E0,-0E0,-1.6074821E-2,7E-2,-0E0,5.8E0,-0E0,1.55E1,-0E0,-0E0,1.2632294E-2,6.2E0,1.92E1,2.03E1,1.79E1,-1.0096119E-2,-0E0,-0E0,5.4E0,1E0,-0E0,1.6E1,7.7E0,2.14E1,9.2E0,-0E0,-5.8139474E-3,-0E0,1.2550437E-2,9.2E0,8.9E0,-3.1592422E-3,-0E0,9.238795E-1,-0E0,-0E0,-1.9438023E-2,-3.629167E-2,-0E0,-0E0,1.2E-2,-0E0,3.267331E-2,-1.2279044E-2,-0E0,-0E0,9.2E0,1.43E1,-0E0,-0E0,1.2180347E-3,-0E0,2.67E1,5.1663835E-3,-0E0,-2.3244012E-3,-0E0,-0E0,-2.3063123E-3,7.8E0,-0E0,-0E0,3.954996E-3,-2.4975697E-2,-0E0,4.432939E-3,-0E0,-6.175439E-3,-0E0,8.1E-2,-0E0,7.0710677E-1,-0E0,-1.5589662E-3,-0E0,-0E0,5.390881E-4],"split_indices":[1,4,4,3,3,4,1,3,3,1,4,4,3,4,0,3,3,6,6,3,3,0,1,3,3,4,4,4,4,3,3,4,6,4,3,4,0,3,0,0,0,3,0,0,0,1,0,4,0,3,0,0,0,4,3,3,3,0,0,0,4,6,0,3,4,3,4,0,0,0,0,4,4,0,0,6,0,0,0,0,0,0,1,0,0,0,0,0,4,3,0,0,0,0,3,0,0,0,0,0,0,4,0,0,0,0,0,0,0,0,0,1,0,6,0,0,0,0,0],"split_type":[0,0,0,0,0,0,0,0,0,0,0,0,0,0,0,0,0,0,0,0,0,0,0,0,0,0,0,0,0,0,0,0,0,0,0,0,0,0,0,0,0,0,0,0,0,0,0,0,0,0,0,0,0,0,0,0,0,0,0,0,0,0,0,0,0,0,0,0,0,0,0,0,0,0,0,0,0,0,0,0,0,0,0,0,0,0,0,0,0,0,0,0,0,0,0,0,0,0,0,0,0,0,0,0,0,0,0,0,0,0,0,0,0,0,0,0,0,0,0],"sum_hessian":[2.8625E4,2.2554E4,6.071E3,9.04E2,5.167E3,8.966E3,1.3588E4,1.107E4,2.518E3,1.751E3,7.67E2,7.57E2,1.47E2,4.05E3,1.117E3,9.89E2,3.061E3,2.915E3,8.155E3,1.521E3,7.445E3,1.037E3,6.408E3,1.91E3,1.005E3,7.78E2,1.132E3,4.96E2,4.93E2,7.04E2,1.047E3,1.97E2,8.5E2,5.673E3,2.482E3,7.22E2,1.28E2,5.25E2,1.79E2,2.894E3,1.67E2,6.306E3,1.02E2,1.67E2,6.11E2,7.09E2,4.8E1,6.99E2,2.3E1,1.631E3,8.51E2,3.6E1,6.63E2,5.146E3,5.27E2,1.025E3,4.121E3,6.054E3,2.52E2,1.3E1,9.92E2,7.07E2,2E0,8.53E2,3.268E3,1.46E3,1.808E3,4.5E1,1.586E3,2E1,4.73E2,1.75E2,6.78E2,5.63E2,1.15E2,1.89E2,8E0,2.1E1,9.71E2,6.92E2,1.5E1,4.5E1,4.8E2,3E0,7.64E2,4.28E2,5.2E1,1.63E2,9.69E2,9.12E2,5.7E1,4.56E2,1.004E3,2.77E2,7.48E2,1.59E2,1.6E1,3.81E2,3.67E2,6.6E1,4.61E2,7E2,2.12E2,3.68E2,3.32E2,1.51E3,1.1E1,1.637E3,1.71E2,1.82E2,7E0,3.29E2,1.67E2,3.26E2,3E0,3.08E2,1.8E1,7E1,7.7E1],"tree_param":{"num_deleted":"0","num_feature":"8","num_nodes":"119","size_leaf_vector":"1"}},{"base_weights":[-0E0,-2.0544365E-1,7.636986E-1,-8.4325045E-1,1.0643033E0,2.5407117E-2,-4.4664985E-1,-2.5354335E-1,1.5693176E-1,-1.107448E0,-0E0,3.5014004E-2,4.8688403E-1,1.9213667E-2,9.917017E-1,1.2151369E-1,1.1360152E0,-6.111367E-1,-2.912922E-1,-5.0469846E-1,1.0437801E-1,1.0012968E0,5.436376E-2,-0E0,2.4562009E-2,-4.3066198E-1,-2.4383964E-2,-5.0355214E-1,-1.9708176E-1,1.5053675E-1,-5.3974956E-2,3.0322487E-2,-0E0,-1.3452601E-1,1.8335849E-1,-0E0,3.204287E-1,5.0465524E-1,-0E0,3.0476041E-2,-0E0,1.6982539E-1,-0E0,-1.1531355E0,-0E0,-6.7468226E-1,-2.8363118E-1,-1.8958751E-2,-1.8259913E-1,-2.0859976E-1,-0E0,-2.3023947E-1,-0E0,-0E0,5.3152746E-1,-5.109047E-1,-0E0,-3.4771346E-2,-0E0,-0E0,1.75314E-1,-2.0330961E-1,-0E0,-1.9970678E-1,-0E0,-0E0,1.662387E-2,-0E0,-5.1378614E-1,-2.3552379E-1,-0E0,-2.0486005E-2,-0E0,-2.910544E-1,-0E0,-0E0,-1.5731845E-2,-8.782859E-3,-0E0,-0E0,-2.5636482E-3,5.314862E-3,-0E0,-0E0,-2.2432339E-1,-0E0,-7.247782E-3,-2.0017436E-1,-0E0,-6.009243E-3,-0E0,-0E0,-1.5451678E-2,-0E0,-7.0724916E-3,-0E0,1.743722E-2,2.1341515E-3,-0E0],"categories":[],"categories_nodes":[],"categories_segments":[],"categories_sizes":[],"default_left":[0,0,0,0,0,0,0,0,0,0,0,0,0,0,0,0,0,0,0,0,0,0,0,0,0,0,0,0,0,0,0,0,0,0,0,0,0,0,0,0,0,0,0,0,0,0,0,0,0,0,0,0,0,0,0,0,0,0,0,0,0,0,0,0,0,0,0,0,0,0,0,0,0,0,0,0,0,0,0,0,0,0,0,0,0,0,0,0,0,0,0,0,0,0,0,0,0,0,0],"id":18,"left_children":[1,5,3,9,15,7,17,47,11,43,95,19,13,33,39,23,21,25,27,67,29,31,-1,-1,-1,45,-1,55,63,41,79,-1,-1,61,35,-1,37,53,-1,-1,-1,59,-1,57,-1,71,73,-1,49,51,-1,69,-1,-1,65,91,-1,-1,-1,-1,81,83,-1,87,-1,-1,-1,-1,75,93,-1,-1,-1,77,-1,-1,-1,-1,-1,-1,-1,-1,-1,-1,85,-1,-1,89,-1,-1,-1,-1,-1,-1,-1,-1,97,-1,-1],"loss_changes":[4.493387E3,1.2980576E3,2.9561218E3,2.861228E2,2.2351416E2,4.0547638E2,1.9686035E2,9.223221E0,2.6691425E2,1.4459839E1,2.3716418E-2,1.8520189E2,3.5194278E2,3.266704E1,2.017517E1,1.0977053E2,1.4530469E2,6.262854E1,5.1739685E1,4.2942505E0,4.9829304E1,4.2256104E1,0E0,0E0,0E0,1.0895203E1,0E0,7.3625793E0,4.5397644E0,1.5240608E1,1.8109972E0,0E0,0E0,4.703629E0,4.4217163E1,0E0,2.0518158E1,7.365883E0,0E0,0E0,0E0,5.2039337E0,0E0,7.0143433E0,0E0,3.0715027E0,2.8471375E0,0E0,2.5415749E1,1.05659485E1,0E0,3.2644348E0,0E0,0E0,4.436531E0,1.5368652E-1,0E0,0E0,0E0,0E0,1.1110535E0,7.135458E-1,0E0,6.895294E-1,0E0,0E0,0E0,0E0,2.1412811E0,4.9621582E-2,0E0,0E0,0E0,1.8662872E0,0E0,0E0,0E0,0E0,0E0,0E0,0E0,0E0,0E0,0E0,1.2509651E0,0E0,0E0,2.0307922E-1,0E0,0E0,0E0,0E0,0E0,0E0,0E0,0E0,3.406519E-1,0E0,0E0],"parents":[2147483647,0,0,2,2,1,1,5,5,3,3,8,8,12,12,4,4,6,6,11,11,16,16,15,15,17,17,18,18,20,20,21,21,13,13,34,34,36,36,14,14,29,29,9,9,25,25,7,7,48,48,49,49,37,37,27,27,43,43,41,41,33,33,28,28,54,54,19,19,51,51,45,45,46,46,68,68,73,73,30,30,60,60,61,61,84,84,63,63,87,87,55,55,69,69,10,10,96,96],"right_children":[2,6,4,10,16,8,18,48,12,44,96,20,14,34,40,24,22,26,28,68,30,32,-1,-1,-1,46,-1,56,64,42,80,-1,-1,62,36,-1,38,54,-1,-1,-1,60,-1,58,-1,72,74,-1,50,52,-1,70,-1,-1,66,92,-1,-1,-1,-1,82,84,-1,88,-1,-1,-1,-1,76,94,-1,-1,-1,78,-1,-1,-1,-1,-1,-1,-1,-1,-1,-1,86,-1,-1,90,-1,-1,-1,-1,-1,-1,-1,-1,98,-1,-1],"split_conditions":[2.3E-2,6E-1,6.1E0,3.7E0,6.7E0,5.6E0,1.84E1,6.8E0,1E-3,6E0,5.6E0,1.16E1,9.3E0,1E-2,9.4E0,3.9E0,6.8E-2,1.4E0,3.3E0,5.9E0,9.2E0,1.3E0,5.436376E-2,-0E0,2.4562009E-2,3.7E0,-2.4383964E-2,3.25E1,1E-3,5E-1,9.3E0,3.0322487E-2,-0E0,9.1E0,4.3E0,-0E0,7.2E0,4.6E0,-0E0,3.0476041E-2,-0E0,5.7E0,-0E0,7E-2,-0E0,1.83E1,1.78E1,-1.8958751E-2,1E-3,5.3E0,-0E0,3.25E1,-0E0,-0E0,5.8E0,1.86E1,-0E0,-3.4771346E-2,-0E0,-0E0,3.08E1,5.8E0,-0E0,5.5E0,-0E0,-0E0,1.662387E-2,-0E0,5.7E0,6.9E0,-0E0,-2.0486005E-2,-0E0,9.6E0,-0E0,-0E0,-1.5731845E-2,-8.782859E-3,-0E0,-0E0,-2.5636482E-3,5.314862E-3,-0E0,-0E0,5.2E0,-0E0,-7.247782E-3,3.62E1,-0E0,-6.009243E-3,-0E0,-0E0,-1.5451678E-2,-0E0,-7.0724916E-3,-0E0,7E-1,2.1341515E-3,-0E0],"split_indices":[1,5,4,3,4,4,3,3,1,4,3,3,3,1,4,3,1,5,4,3,4,5,0,0,0,4,0,3,1,5,4,0,0,3,3,0,4,3,0,0,0,4,0,1,0,3,3,0,1,4,0,3,0,0,4,3,0,0,0,0,3,4,0,5,0,0,0,0,4,3,0,0,0,4,0,0,0,0,0,0,0,0,0,0,3,0,0,3,0,0,0,0,0,0,0,0,5,0,0],"split_type":[0,0,0,0,0,0,0,0,0,0,0,0,0,0,0,0,0,0,0,0,0,0,0,0,0,0,0,0,0,0,0,0,0,0,0,0,0,0,0,0,0,0,0,0,0,0,0,0,0,0,0,0,0,0,0,0,0,0,0,0,0,0,0,0,0,0,0,0,0,0,0,0,0,0,0,0,0,0,0,0,0,0,0,0,0,0,0,0,0,0,0,0,0,0,0,0,0,0,0],"sum_hessian":[2.8625E4,2.2554E4,6.071E3,9.04E2,5.167E3,1.1313E4,1.1241E4,3.381E3,7.932E3,7.57E2,1.47E2,6.014E3,1.918E3,1.099E3,8.19E2,4.64E2,4.703E3,5.146E3,6.095E3,5.2E2,5.494E3,4.047E3,6.56E2,2.91E2,1.73E2,2.979E3,2.167E3,1.546E3,4.549E3,4.743E3,7.51E2,4.013E3,3.4E1,2.53E2,8.46E2,1.39E2,7.07E2,3.65E2,3.42E2,8E2,1.9E1,4.255E3,4.88E2,7.09E2,4.8E1,8.63E2,2.116E3,3.1E2,3.071E3,2.937E3,1.34E2,2.61E3,3.27E2,1E1,3.55E2,1.53E3,1.6E1,7.07E2,2E0,9.3E1,4.162E3,2.24E2,2.9E1,4.544E3,5E0,1.4E1,3.41E2,2E0,5.18E2,2.553E3,5.7E1,8.49E2,1.4E1,2.043E3,7.3E1,1.3E1,5.05E2,2.041E3,2E0,2.04E2,5.47E2,4.111E3,5.1E1,2.6E1,1.98E2,6E0,1.92E2,4.54E3,4E0,4.539E3,1E0,2.4E1,1.506E3,4E0,2.549E3,7E1,7.7E1,7.1E1,6E0],"tree_param":{"num_deleted":"0","num_feature":"8","num_nodes":"99","size_leaf_vector":"1"}},{"base_weights":[-0E0,-2.000591E-1,7.4110895E-1,6.1552846E-1,5.3611476E-2,-2.4749197E-1,4.9718827E-2,-2.6798874E-1,2.2759952E-2,2.2524176E-2,-0E0,-0E0,-2.90774E-1,